<?xml version="1.0"?>
<MethodSetup Method="DL::DNN_GPU">
  <GeneralInfo>
    <Info name="TMVA Release" value="4.2.1 [262657]"/>
    <Info name="ROOT Release" value="6.30/04 [400900]"/>
    <Info name="Creator" value="ptiwari"/>
    <Info name="Date" value="Sat Jul 20 03:20:14 2024"/>
    <Info name="Host" value="Darwin ChristohersMBP8.localdomain 23.1.0 Darwin Kernel Version 23.1.0: Mon Oct 9 21:27:24 PDT 2023; root:xnu-10002.41.9~6/RELEASE_ARM64_T6000 arm64"/>
    <Info name="Dir" value="/Users/ptiwari/Development/hepProjects/hhbbgg_AwkwardAnalyzer/bdt/notebook"/>
    <Info name="Training events" value="20000"/>
    <Info name="TrainingTime" value="1.48915761e+01"/>
    <Info name="AnalysisType" value="Multiclass"/>
  </GeneralInfo>
  <Options>
    <Option name="V" modified="Yes">True</Option>
    <Option name="VerbosityLevel" modified="No">Verbose</Option>
    <Option name="VarTransform" modified="Yes">N</Option>
    <Option name="H" modified="Yes">False</Option>
    <Option name="CreateMVAPdfs" modified="No">False</Option>
    <Option name="IgnoreNegWeightsInTraining" modified="No">False</Option>
    <Option name="InputLayout" modified="No">0|0|0</Option>
    <Option name="BatchLayout" modified="No">0|0|0</Option>
    <Option name="Layout" modified="Yes">TANH|128,TANH|128,TANH|128,LINEAR</Option>
    <Option name="ErrorStrategy" modified="Yes">CROSSENTROPY</Option>
    <Option name="WeightInitialization" modified="Yes">XAVIERUNIFORM</Option>
    <Option name="RandomSeed" modified="No">0</Option>
    <Option name="ValidationSize" modified="No">20%</Option>
    <Option name="Architecture" modified="No">CPU</Option>
    <Option name="TrainingStrategy" modified="Yes">LearningRate=1e-2,Momentum=0.9,ConvergenceSteps=20,BatchSize=100,TestRepetitions=1,WeightDecay=1e-4,Regularization=None,DropConfig=0.0+0.5+0.5+0.5</Option>
  </Options>
  <Variables NVar="30">
    <Variable VarIndex="0" Expression="bbgg_mass" Label="bbgg_mass" Title="bbgg_mass" Unit="" Internal="bbgg_mass" Type="F" Min="1.58398682e+02" Max="2.57474707e+03"/>
    <Variable VarIndex="1" Expression="dibjet_pt" Label="dibjet_pt" Title="dibjet_pt" Unit="" Internal="dibjet_pt" Type="F" Min="2.04869583e-01" Max="1.25989661e+03"/>
    <Variable VarIndex="2" Expression="diphoton_pt" Label="diphoton_pt" Title="diphoton_pt" Unit="" Internal="diphoton_pt" Type="F" Min="6.35764003e-01" Max="9.14014404e+02"/>
    <Variable VarIndex="3" Expression="bbgg_pt" Label="bbgg_pt" Title="bbgg_pt" Unit="" Internal="bbgg_pt" Type="F" Min="8.56400058e-02" Max="1.38028662e+03"/>
    <Variable VarIndex="4" Expression="bbgg_eta" Label="bbgg_eta" Title="bbgg_eta" Unit="" Internal="bbgg_eta" Type="F" Min="-8.11046505e+00" Max="7.80849409e+00"/>
    <Variable VarIndex="5" Expression="bbgg_phi" Label="bbgg_phi" Title="bbgg_phi" Unit="" Internal="bbgg_phi" Type="F" Min="-3.14034367e+00" Max="3.14087224e+00"/>
    <Variable VarIndex="6" Expression="lead_pho_eta" Label="lead_pho_eta" Title="lead_pho_eta" Unit="" Internal="lead_pho_eta" Type="F" Min="-2.49804688e+00" Max="2.49121094e+00"/>
    <Variable VarIndex="7" Expression="lead_pho_phi" Label="lead_pho_phi" Title="lead_pho_phi" Unit="" Internal="lead_pho_phi" Type="F" Min="-3.14111328e+00" Max="3.14160156e+00"/>
    <Variable VarIndex="8" Expression="sublead_pho_eta" Label="sublead_pho_eta" Title="sublead_pho_eta" Unit="" Internal="sublead_pho_eta" Type="F" Min="-2.49755859e+00" Max="2.49853516e+00"/>
    <Variable VarIndex="9" Expression="sublead_pho_phi" Label="sublead_pho_phi" Title="sublead_pho_phi" Unit="" Internal="sublead_pho_phi" Type="F" Min="-3.14111328e+00" Max="3.14160156e+00"/>
    <Variable VarIndex="10" Expression="diphoton_eta" Label="diphoton_eta" Title="diphoton_eta" Unit="" Internal="diphoton_eta" Type="F" Min="-7.45361614e+00" Max="6.76777506e+00"/>
    <Variable VarIndex="11" Expression="diphoton_phi" Label="diphoton_phi" Title="diphoton_phi" Unit="" Internal="diphoton_phi" Type="F" Min="-3.14087605e+00" Max="3.14152670e+00"/>
    <Variable VarIndex="12" Expression="dibjet_eta" Label="dibjet_eta" Title="dibjet_eta" Unit="" Internal="dibjet_eta" Type="F" Min="-7.01819611e+00" Max="5.95133162e+00"/>
    <Variable VarIndex="13" Expression="dibjet_phi" Label="dibjet_phi" Title="dibjet_phi" Unit="" Internal="dibjet_phi" Type="F" Min="-3.14155006e+00" Max="3.14098859e+00"/>
    <Variable VarIndex="14" Expression="sublead_bjet_pt" Label="sublead_bjet_pt" Title="sublead_bjet_pt" Unit="" Internal="sublead_bjet_pt" Type="F" Min="2.00156250e+01" Max="3.19000000e+02"/>
    <Variable VarIndex="15" Expression="lead_bjet_phi" Label="lead_bjet_phi" Title="lead_bjet_phi" Unit="" Internal="lead_bjet_phi" Type="F" Min="-3.14160156e+00" Max="3.14062500e+00"/>
    <Variable VarIndex="16" Expression="sublead_bjet_eta" Label="sublead_bjet_eta" Title="sublead_bjet_eta" Unit="" Internal="sublead_bjet_eta" Type="F" Min="-2.49951172e+00" Max="2.49951172e+00"/>
    <Variable VarIndex="17" Expression="sublead_bjet_phi" Label="sublead_bjet_phi" Title="sublead_bjet_phi" Unit="" Internal="sublead_bjet_phi" Type="F" Min="-3.14160156e+00" Max="3.14062500e+00"/>
    <Variable VarIndex="18" Expression="sublead_bjet_PNetB" Label="sublead_bjet_PNetB" Title="sublead_bjet_PNetB" Unit="" Internal="sublead_bjet_PNetB" Type="F" Min="1.22833252e-03" Max="9.99511719e-01"/>
    <Variable VarIndex="19" Expression="lead_bjet_PNetB" Label="lead_bjet_PNetB" Title="lead_bjet_PNetB" Unit="" Internal="lead_bjet_PNetB" Type="F" Min="7.08580017e-04" Max="9.99511719e-01"/>
    <Variable VarIndex="20" Expression="CosThetaStar_gg" Label="CosThetaStar_gg" Title="CosThetaStar_gg" Unit="" Internal="CosThetaStar_gg" Type="F" Min="-9.99931812e-01" Max="9.99846160e-01"/>
    <Variable VarIndex="21" Expression="CosThetaStar_jj" Label="CosThetaStar_jj" Title="CosThetaStar_jj" Unit="" Internal="CosThetaStar_jj" Type="F" Min="-9.99996006e-01" Max="9.99922454e-01"/>
    <Variable VarIndex="22" Expression="CosThetaStar_CS" Label="CosThetaStar_CS" Title="CosThetaStar_CS" Unit="" Internal="CosThetaStar_CS" Type="F" Min="-9.99989688e-01" Max="9.99987245e-01"/>
    <Variable VarIndex="23" Expression="DeltaR_jg_min" Label="DeltaR_jg_min" Title="DeltaR_jg_min" Unit="" Internal="DeltaR_jg_min" Type="F" Min="4.00275558e-01" Max="4.28595257e+00"/>
    <Variable VarIndex="24" Expression="pholead_PtOverM" Label="pholead_PtOverM" Title="pholead_PtOverM" Unit="" Internal="pholead_PtOverM" Type="F" Min="3.34028602e-01" Max="6.80878973e+00"/>
    <Variable VarIndex="25" Expression="phosublead_PtOverM" Label="phosublead_PtOverM" Title="phosublead_PtOverM" Unit="" Internal="phosublead_PtOverM" Type="F" Min="2.50040501e-01" Max="2.88749480e+00"/>
    <Variable VarIndex="26" Expression="FirstJet_PtOverM" Label="FirstJet_PtOverM" Title="FirstJet_PtOverM" Unit="" Internal="FirstJet_PtOverM" Type="F" Min="1.11182250e-01" Max="9.55922031e+00"/>
    <Variable VarIndex="27" Expression="SecondJet_PtOverM" Label="SecondJet_PtOverM" Title="SecondJet_PtOverM" Unit="" Internal="SecondJet_PtOverM" Type="F" Min="1.06673196e-01" Max="2.35558939e+00"/>
    <Variable VarIndex="28" Expression="diphoton_bbgg_mass" Label="diphoton_bbgg_mass" Title="diphoton_bbgg_mass" Unit="" Internal="diphoton_bbgg_mass" Type="F" Min="1.33723114e-03" Max="1.64536285e+00"/>
    <Variable VarIndex="29" Expression="dibjet_bbgg_mass" Label="dibjet_bbgg_mass" Title="dibjet_bbgg_mass" Unit="" Internal="dibjet_bbgg_mass" Type="F" Min="7.32800283e-04" Max="1.67565763e+00"/>
  </Variables>
  <Spectators NSpec="0"/>
  <Classes NClass="2">
    <Class Name="Signal" Index="0"/>
    <Class Name="Background" Index="1"/>
  </Classes>
  <Transformations NTransformations="1">
    <Transform Name="Normalize">
      <Selection>
        <Input NInputs="30">
          <Input Type="Variable" Label="bbgg_mass" Expression="bbgg_mass"/>
          <Input Type="Variable" Label="dibjet_pt" Expression="dibjet_pt"/>
          <Input Type="Variable" Label="diphoton_pt" Expression="diphoton_pt"/>
          <Input Type="Variable" Label="bbgg_pt" Expression="bbgg_pt"/>
          <Input Type="Variable" Label="bbgg_eta" Expression="bbgg_eta"/>
          <Input Type="Variable" Label="bbgg_phi" Expression="bbgg_phi"/>
          <Input Type="Variable" Label="lead_pho_eta" Expression="lead_pho_eta"/>
          <Input Type="Variable" Label="lead_pho_phi" Expression="lead_pho_phi"/>
          <Input Type="Variable" Label="sublead_pho_eta" Expression="sublead_pho_eta"/>
          <Input Type="Variable" Label="sublead_pho_phi" Expression="sublead_pho_phi"/>
          <Input Type="Variable" Label="diphoton_eta" Expression="diphoton_eta"/>
          <Input Type="Variable" Label="diphoton_phi" Expression="diphoton_phi"/>
          <Input Type="Variable" Label="dibjet_eta" Expression="dibjet_eta"/>
          <Input Type="Variable" Label="dibjet_phi" Expression="dibjet_phi"/>
          <Input Type="Variable" Label="sublead_bjet_pt" Expression="sublead_bjet_pt"/>
          <Input Type="Variable" Label="lead_bjet_phi" Expression="lead_bjet_phi"/>
          <Input Type="Variable" Label="sublead_bjet_eta" Expression="sublead_bjet_eta"/>
          <Input Type="Variable" Label="sublead_bjet_phi" Expression="sublead_bjet_phi"/>
          <Input Type="Variable" Label="sublead_bjet_PNetB" Expression="sublead_bjet_PNetB"/>
          <Input Type="Variable" Label="lead_bjet_PNetB" Expression="lead_bjet_PNetB"/>
          <Input Type="Variable" Label="CosThetaStar_gg" Expression="CosThetaStar_gg"/>
          <Input Type="Variable" Label="CosThetaStar_jj" Expression="CosThetaStar_jj"/>
          <Input Type="Variable" Label="CosThetaStar_CS" Expression="CosThetaStar_CS"/>
          <Input Type="Variable" Label="DeltaR_jg_min" Expression="DeltaR_jg_min"/>
          <Input Type="Variable" Label="pholead_PtOverM" Expression="pholead_PtOverM"/>
          <Input Type="Variable" Label="phosublead_PtOverM" Expression="phosublead_PtOverM"/>
          <Input Type="Variable" Label="FirstJet_PtOverM" Expression="FirstJet_PtOverM"/>
          <Input Type="Variable" Label="SecondJet_PtOverM" Expression="SecondJet_PtOverM"/>
          <Input Type="Variable" Label="diphoton_bbgg_mass" Expression="diphoton_bbgg_mass"/>
          <Input Type="Variable" Label="dibjet_bbgg_mass" Expression="dibjet_bbgg_mass"/>
        </Input>
        <Output NOutputs="30">
          <Output Type="Variable" Label="bbgg_mass" Expression="bbgg_mass"/>
          <Output Type="Variable" Label="dibjet_pt" Expression="dibjet_pt"/>
          <Output Type="Variable" Label="diphoton_pt" Expression="diphoton_pt"/>
          <Output Type="Variable" Label="bbgg_pt" Expression="bbgg_pt"/>
          <Output Type="Variable" Label="bbgg_eta" Expression="bbgg_eta"/>
          <Output Type="Variable" Label="bbgg_phi" Expression="bbgg_phi"/>
          <Output Type="Variable" Label="lead_pho_eta" Expression="lead_pho_eta"/>
          <Output Type="Variable" Label="lead_pho_phi" Expression="lead_pho_phi"/>
          <Output Type="Variable" Label="sublead_pho_eta" Expression="sublead_pho_eta"/>
          <Output Type="Variable" Label="sublead_pho_phi" Expression="sublead_pho_phi"/>
          <Output Type="Variable" Label="diphoton_eta" Expression="diphoton_eta"/>
          <Output Type="Variable" Label="diphoton_phi" Expression="diphoton_phi"/>
          <Output Type="Variable" Label="dibjet_eta" Expression="dibjet_eta"/>
          <Output Type="Variable" Label="dibjet_phi" Expression="dibjet_phi"/>
          <Output Type="Variable" Label="sublead_bjet_pt" Expression="sublead_bjet_pt"/>
          <Output Type="Variable" Label="lead_bjet_phi" Expression="lead_bjet_phi"/>
          <Output Type="Variable" Label="sublead_bjet_eta" Expression="sublead_bjet_eta"/>
          <Output Type="Variable" Label="sublead_bjet_phi" Expression="sublead_bjet_phi"/>
          <Output Type="Variable" Label="sublead_bjet_PNetB" Expression="sublead_bjet_PNetB"/>
          <Output Type="Variable" Label="lead_bjet_PNetB" Expression="lead_bjet_PNetB"/>
          <Output Type="Variable" Label="CosThetaStar_gg" Expression="CosThetaStar_gg"/>
          <Output Type="Variable" Label="CosThetaStar_jj" Expression="CosThetaStar_jj"/>
          <Output Type="Variable" Label="CosThetaStar_CS" Expression="CosThetaStar_CS"/>
          <Output Type="Variable" Label="DeltaR_jg_min" Expression="DeltaR_jg_min"/>
          <Output Type="Variable" Label="pholead_PtOverM" Expression="pholead_PtOverM"/>
          <Output Type="Variable" Label="phosublead_PtOverM" Expression="phosublead_PtOverM"/>
          <Output Type="Variable" Label="FirstJet_PtOverM" Expression="FirstJet_PtOverM"/>
          <Output Type="Variable" Label="SecondJet_PtOverM" Expression="SecondJet_PtOverM"/>
          <Output Type="Variable" Label="diphoton_bbgg_mass" Expression="diphoton_bbgg_mass"/>
          <Output Type="Variable" Label="dibjet_bbgg_mass" Expression="dibjet_bbgg_mass"/>
        </Output>
      </Selection>
      <Class ClassIndex="0">
        <Ranges>
          <Range Index="0" Min="2.0151066589355469e+02" Max="2.0713242187500000e+03"/>
          <Range Index="1" Min="1.0232212543487549e+00" Max="7.7809686279296875e+02"/>
          <Range Index="2" Min="1.7970170974731445e+00" Max="9.1401440429687500e+02"/>
          <Range Index="3" Min="8.5640005767345428e-02" Max="9.4765411376953125e+02"/>
          <Range Index="4" Min="-7.0306372642517090e+00" Max="7.8084940910339355e+00"/>
          <Range Index="5" Min="-3.1403436660766602e+00" Max="3.1408722400665283e+00"/>
          <Range Index="6" Min="-2.4916992187500000e+00" Max="2.4873046875000000e+00"/>
          <Range Index="7" Min="-3.1401367187500000e+00" Max="3.1416015625000000e+00"/>
          <Range Index="8" Min="-2.4970703125000000e+00" Max="2.4912109375000000e+00"/>
          <Range Index="9" Min="-3.1411132812500000e+00" Max="3.1416015625000000e+00"/>
          <Range Index="10" Min="-4.8740258216857910e+00" Max="4.7741618156433105e+00"/>
          <Range Index="11" Min="-3.1406700611114502e+00" Max="3.1408240795135498e+00"/>
          <Range Index="12" Min="-5.3034915924072266e+00" Max="5.8176116943359375e+00"/>
          <Range Index="13" Min="-3.1411786079406738e+00" Max="3.1409885883331299e+00"/>
          <Range Index="14" Min="2.0015625000000000e+01" Max="3.1900000000000000e+02"/>
          <Range Index="15" Min="-3.1416015625000000e+00" Max="3.1396484375000000e+00"/>
          <Range Index="16" Min="-2.4975585937500000e+00" Max="2.4980468750000000e+00"/>
          <Range Index="17" Min="-3.1406250000000000e+00" Max="3.1406250000000000e+00"/>
          <Range Index="18" Min="1.6746520996093750e-03" Max="9.9951171875000000e-01"/>
          <Range Index="19" Min="1.0671615600585938e-03" Max="9.9951171875000000e-01"/>
          <Range Index="20" Min="-9.9993181228637695e-01" Max="9.9984616041183472e-01"/>
          <Range Index="21" Min="-9.9985498189926147e-01" Max="9.9973452091217041e-01"/>
          <Range Index="22" Min="-9.9964630603790283e-01" Max="9.9948185682296753e-01"/>
          <Range Index="23" Min="4.0201401710510254e-01" Max="3.6236340999603271e+00"/>
          <Range Index="24" Min="3.3701181411743164e-01" Max="6.8087897300720215e+00"/>
          <Range Index="25" Min="2.5004422664642334e-01" Max="2.8874948024749756e+00"/>
          <Range Index="26" Min="1.3699649274349213e-01" Max="7.3931384086608887e+00"/>
          <Range Index="27" Min="1.0827273130416870e-01" Max="2.3555893898010254e+00"/>
          <Range Index="28" Min="6.3954591751098633e-03" Max="1.6324757337570190e+00"/>
          <Range Index="29" Min="2.5188478175550699e-03" Max="9.5103579759597778e-01"/>
        </Ranges>
      </Class>
      <Class ClassIndex="1">
        <Ranges>
          <Range Index="0" Min="1.5839868164062500e+02" Max="2.5747470703125000e+03"/>
          <Range Index="1" Min="2.0486958324909210e-01" Max="1.2598966064453125e+03"/>
          <Range Index="2" Min="6.3576400279998779e-01" Max="7.4166638183593750e+02"/>
          <Range Index="3" Min="3.9973497390747070e-01" Max="1.3802866210937500e+03"/>
          <Range Index="4" Min="-8.1104650497436523e+00" Max="7.1197357177734375e+00"/>
          <Range Index="5" Min="-3.1399955749511719e+00" Max="3.1405599117279053e+00"/>
          <Range Index="6" Min="-2.4980468750000000e+00" Max="2.4912109375000000e+00"/>
          <Range Index="7" Min="-3.1411132812500000e+00" Max="3.1416015625000000e+00"/>
          <Range Index="8" Min="-2.4975585937500000e+00" Max="2.4985351562500000e+00"/>
          <Range Index="9" Min="-3.1411132812500000e+00" Max="3.1416015625000000e+00"/>
          <Range Index="10" Min="-7.4536161422729492e+00" Max="6.7677750587463379e+00"/>
          <Range Index="11" Min="-3.1408760547637939e+00" Max="3.1415266990661621e+00"/>
          <Range Index="12" Min="-7.0181961059570312e+00" Max="5.9513316154479980e+00"/>
          <Range Index="13" Min="-3.1415500640869141e+00" Max="3.1402420997619629e+00"/>
          <Range Index="14" Min="2.0015625000000000e+01" Max="2.0750000000000000e+02"/>
          <Range Index="15" Min="-3.1416015625000000e+00" Max="3.1406250000000000e+00"/>
          <Range Index="16" Min="-2.4995117187500000e+00" Max="2.4995117187500000e+00"/>
          <Range Index="17" Min="-3.1416015625000000e+00" Max="3.1381835937500000e+00"/>
          <Range Index="18" Min="1.2283325195312500e-03" Max="9.9951171875000000e-01"/>
          <Range Index="19" Min="7.0858001708984375e-04" Max="9.9951171875000000e-01"/>
          <Range Index="20" Min="-9.9942660331726074e-01" Max="9.9683976173400879e-01"/>
          <Range Index="21" Min="-9.9999600648880005e-01" Max="9.9992245435714722e-01"/>
          <Range Index="22" Min="-9.9998968839645386e-01" Max="9.9998724460601807e-01"/>
          <Range Index="23" Min="4.0027555823326111e-01" Max="4.2859525680541992e+00"/>
          <Range Index="24" Min="3.3402860164642334e-01" Max="4.6137070655822754e+00"/>
          <Range Index="25" Min="2.5004050135612488e-01" Max="2.3855023384094238e+00"/>
          <Range Index="26" Min="1.1118225008249283e-01" Max="9.5592203140258789e+00"/>
          <Range Index="27" Min="1.0667319595813751e-01" Max="2.1286776065826416e+00"/>
          <Range Index="28" Min="1.3372311368584633e-03" Max="1.6453628540039062e+00"/>
          <Range Index="29" Min="7.3280028300359845e-04" Max="1.6756576299667358e+00"/>
        </Ranges>
      </Class>
      <Class ClassIndex="2">
        <Ranges>
          <Range Index="0" Min="1.5839868164062500e+02" Max="2.5747470703125000e+03"/>
          <Range Index="1" Min="2.0486958324909210e-01" Max="1.2598966064453125e+03"/>
          <Range Index="2" Min="6.3576400279998779e-01" Max="9.1401440429687500e+02"/>
          <Range Index="3" Min="8.5640005767345428e-02" Max="1.3802866210937500e+03"/>
          <Range Index="4" Min="-8.1104650497436523e+00" Max="7.8084940910339355e+00"/>
          <Range Index="5" Min="-3.1403436660766602e+00" Max="3.1408722400665283e+00"/>
          <Range Index="6" Min="-2.4980468750000000e+00" Max="2.4912109375000000e+00"/>
          <Range Index="7" Min="-3.1411132812500000e+00" Max="3.1416015625000000e+00"/>
          <Range Index="8" Min="-2.4975585937500000e+00" Max="2.4985351562500000e+00"/>
          <Range Index="9" Min="-3.1411132812500000e+00" Max="3.1416015625000000e+00"/>
          <Range Index="10" Min="-7.4536161422729492e+00" Max="6.7677750587463379e+00"/>
          <Range Index="11" Min="-3.1408760547637939e+00" Max="3.1415266990661621e+00"/>
          <Range Index="12" Min="-7.0181961059570312e+00" Max="5.9513316154479980e+00"/>
          <Range Index="13" Min="-3.1415500640869141e+00" Max="3.1409885883331299e+00"/>
          <Range Index="14" Min="2.0015625000000000e+01" Max="3.1900000000000000e+02"/>
          <Range Index="15" Min="-3.1416015625000000e+00" Max="3.1406250000000000e+00"/>
          <Range Index="16" Min="-2.4995117187500000e+00" Max="2.4995117187500000e+00"/>
          <Range Index="17" Min="-3.1416015625000000e+00" Max="3.1406250000000000e+00"/>
          <Range Index="18" Min="1.2283325195312500e-03" Max="9.9951171875000000e-01"/>
          <Range Index="19" Min="7.0858001708984375e-04" Max="9.9951171875000000e-01"/>
          <Range Index="20" Min="-9.9993181228637695e-01" Max="9.9984616041183472e-01"/>
          <Range Index="21" Min="-9.9999600648880005e-01" Max="9.9992245435714722e-01"/>
          <Range Index="22" Min="-9.9998968839645386e-01" Max="9.9998724460601807e-01"/>
          <Range Index="23" Min="4.0027555823326111e-01" Max="4.2859525680541992e+00"/>
          <Range Index="24" Min="3.3402860164642334e-01" Max="6.8087897300720215e+00"/>
          <Range Index="25" Min="2.5004050135612488e-01" Max="2.8874948024749756e+00"/>
          <Range Index="26" Min="1.1118225008249283e-01" Max="9.5592203140258789e+00"/>
          <Range Index="27" Min="1.0667319595813751e-01" Max="2.3555893898010254e+00"/>
          <Range Index="28" Min="1.3372311368584633e-03" Max="1.6453628540039062e+00"/>
          <Range Index="29" Min="7.3280028300359845e-04" Max="1.6756576299667358e+00"/>
        </Ranges>
      </Class>
    </Transform>
  </Transformations>
  <MVAPdfs/>
  <Weights NetDepth="4" InputDepth="1" InputHeight="1" InputWidth="30" BatchSize="1" BatchDepth="1" BatchHeight="100" BatchWidth="30" LossFunction="C" Initialization="F" Regularization="0" OutputFunction="M" WeightDecay="9.9999997473787516e-05">
    <DenseLayer Width="128" ActivationFunction="3">
      <Weights Rows="128" Columns="30">
        -4.233855e-01  -1.079662e-01  3.474331e-01  -7.242826e-01  -2.651576e-01  -1.334682e-01  -6.522574e-01  5.482948e-01  -1.987086e-01  2.765547e-01  -6.801646e-01  4.412833e-01  2.990867e-01  -3.526933e-01  1.738576e-01  -1.259217e-01  3.558955e-01  5.501053e-03  5.134159e-01  2.536381e-01  -7.661360e-01  -7.410859e-02  -8.289233e-01  7.153139e-01  -4.516814e-01  1.215379e-01  -6.978080e-02  -3.659404e-02  1.410273e-01  2.932275e-01  4.443413e-01  3.178148e-01  -9.835401e-01  -1.585439e-01  2.894295e-01  8.622203e-02  1.965273e-01  9.808609e-02  -1.404768e-02  3.692197e-01  -1.490474e-01  -9.101363e-02  -1.814425e-01  -2.249350e-01  -6.613604e-02  -1.963430e-02  -2.108277e-01  -1.651342e-01  -3.599005e-01  -4.153292e-01  -2.346332e-01  1.744852e-01  -1.122506e-01  -5.753778e-01  -3.267027e-03  2.833913e-02  7.161979e-01  4.576424e-01  -1.795715e+00  -6.091195e-01  -1.066043e-01  2.958964e-01  6.400060e-01  -1.340651e-01  -6.608208e-01  1.472448e-01  -4.210314e-01  9.084745e-02  2.383764e-01  1.212106e+00  6.186793e-02  3.471650e-01  -9.373236e-01  -1.066961e+00  2.531250e-01  -1.328960e+00  -1.175430e+00  -1.178065e-01  -1.643435e-01  8.711394e-01  -7.138583e-01  -6.340651e-01  4.216755e-01  8.968955e-01  3.979672e-02  3.427360e-01  -2.626654e-02  2.194144e-01  8.924286e-01  5.722106e-01  -6.000411e-01  -4.458813e-01  6.448904e-01  -3.242185e-01  1.135728e+00  1.288871e-01  4.295478e-01  3.978822e-02  2.586943e-01  -4.059625e-01  1.043991e+00  4.540018e-01  6.876848e-01  3.291345e-01  -2.770400e-01  -5.057207e-03  -1.735247e-01  -7.331891e-02  2.996807e-01  6.186184e-01  3.039031e-01  6.017566e-01  1.293509e-02  -2.392605e-01  -3.899432e-02  6.632267e-03  -4.291918e-01  -1.371225e-01  6.927189e-01  2.556450e-01  4.682934e-01  2.964519e-01  -7.827142e-01  3.198926e-01  -4.537364e-02  -2.934526e-02  7.568483e-03  -3.270799e-02  1.533345e-01  -3.863804e-01  1.072598e-01  -8.249567e-02  3.370391e-01  -1.818847e-02  4.589774e-02  4.087823e-03  -8.120441e-02  1.725825e-02  -1.008081e+00  -1.224609e+00  -7.210074e-02  -2.094107e-01  1.976793e-02  5.594128e-02  1.481150e-01  -2.740332e-01  4.919117e-01  2.814066e-01  -8.009179e-01  -7.846251e-01  -1.107695e-01  -2.411221e-02  5.654610e-01  -7.123770e-01  4.696850e-02  1.217011e+00  4.139712e-01  -3.822869e-01  -1.834829e-01  -3.427193e-01  6.182828e-01  6.179973e-01  -7.785687e-01  -9.341950e-01  -3.333521e-01  -4.416822e-01  -7.134405e-01  -2.870610e-01  -1.047326e-01  3.851303e-01  1.127452e+00  -4.763915e-01  1.290161e+00  5.614426e-01  -1.933674e-01  2.988609e-01  -3.131875e-01  -4.776007e-01  7.425259e-01  3.163068e-01  -2.078345e-01  -3.296730e-02  1.043554e+00  -1.939466e-01  4.499685e-01  2.118382e-01  8.255508e-02  -1.106543e-01  4.158315e-01  6.824565e-02  6.090651e-01  1.690145e-01  1.424273e-01  -1.856838e-01  -1.559600e-01  -1.093890e-01  -5.897727e-02  1.459023e-01  7.589266e-01  4.630194e-01  1.930811e-01  2.293535e-01  2.073711e-01  1.685184e-01  4.881978e-02  1.491697e-01  -5.674418e-01  -3.447402e-01  1.354485e+00  5.679524e-01  -1.898340e-01  -6.735932e-02  3.887516e-01  -5.756623e-01  -1.828636e-01  2.262051e-01  1.469142e-01  5.635526e-02  -3.003185e-01  1.914088e-01  3.646236e-01  6.600389e-01  -6.971251e-02  -8.237935e-01  3.150233e-01  -1.248086e-01  -5.120743e-01  -5.938559e-01  7.636787e-01  6.896338e-01  2.754862e-01  -7.497743e-01  5.391623e-01  9.037221e-01  -2.166605e-01  1.946050e-01  7.874345e-02  1.542749e-01  5.006440e-01  6.063158e-01  5.587210e-01  5.810954e-01  4.720538e-01  5.241069e-01  2.983094e-01  -4.361876e-01  -6.231536e-02  -1.802817e-01  3.135066e-01  -3.160656e-01  1.546394e-01  -3.867953e-01  3.184045e-01  -1.369288e-01  4.250806e-01  -1.970028e-01  3.034782e-01  -3.423786e-01  -4.775365e-01  -4.535644e-01  -3.598524e-01  2.052648e-01  -3.356529e-02  1.292058e-01  3.980707e-01  8.474052e-02  3.685039e-01  1.450274e-01  9.541858e-02  -6.968525e-02  -2.203462e-01  -7.015465e-02  3.120223e-01  -7.030876e-01  -1.139737e-01  2.332759e-01  2.375349e-01  -7.504867e-02  -1.543620e-01  -1.795724e-01  1.995144e-01  1.543207e-01  -5.728970e-01  -5.450280e-01  3.866072e-01  2.392579e-01  -9.074166e-01  -4.085470e-01  1.023090e+00  4.593243e-01  3.313225e-02  -4.371129e-01  8.638091e-01  9.130931e-01  -2.170885e-01  5.571126e-01  -9.500571e-02  1.853730e-01  5.394831e-01  6.060591e-01  6.782740e-01  1.600131e-01  -1.276946e+00  4.637065e-01  2.780716e-01  -2.445649e-02  2.747431e-02  -2.810836e-01  -2.284441e-01  3.760913e-02  3.848910e-02  8.002926e-02  -1.057733e-01  1.150260e-01  9.496249e-02  2.192202e-02  5.097305e-01  3.556984e-01  -1.774320e-01  -4.052332e-01  -1.600835e-01  4.017984e-01  -5.027556e-01  -3.197016e-01  -1.171078e-01  -5.145589e-01  6.020932e-01  2.455009e-02  -1.978150e+00  -9.534809e-01  6.165289e-01  4.270832e-01  -8.823369e-01  -5.144647e-02  -8.692138e-02  2.206458e-01  6.755877e-02  1.036150e-01  1.080348e-01  -8.161499e-02  -2.380501e-01  7.010616e-02  -2.790694e-01  -3.932534e-02  5.255651e-02  9.777178e-02  -2.710804e-01  -1.164906e-01  -5.809149e-01  -6.959355e-01  -3.134766e-01  -1.565971e-02  -1.268370e-01  -6.819073e-02  4.138897e-02  -1.428874e-01  6.540143e-01  1.523918e-01  -1.373964e+00  -5.664443e-01  -1.532538e-01  -1.212740e-01  1.354091e+00  -3.321186e-01  -2.211481e-02  -9.664807e-02  -1.212071e-01  -1.915657e-01  2.283583e-01  -3.325200e-01  -6.466148e-02  -1.133413e-01  4.633014e-02  -9.136169e-02  -1.149723e-01  -6.170620e-03  -2.653232e-01  2.857490e-02  8.313007e-02  3.636129e-01  -1.855582e-01  -1.637378e-01  2.792782e-01  2.558870e-01  -5.109636e-02  8.606608e-02  -4.989240e-01  -4.128032e-01  1.710620e+00  7.127657e-01  3.496179e-01  2.788819e-01  -1.133983e+00  3.768715e-02  1.483367e-01  1.800089e-01  1.114820e-01  1.956829e-01  2.519749e-02  2.300432e-01  -2.623225e-01  1.641992e-01  -3.945889e-01  7.822306e-02  4.559841e-02  -5.128939e-02  -6.010019e-02  -2.034784e-02  -4.581398e-01  -7.186946e-01  -2.403103e-01  3.663393e-03  1.788071e-01  -2.158021e-01  1.061628e-01  -2.084988e-01  6.633751e-01  1.930160e-01  -1.314731e+00  -4.057884e-01  3.934070e-01  6.143164e-01  -4.305474e-01  -2.608981e-02  8.266391e-01  -5.798906e-02  2.004725e-01  7.142584e-01  1.163879e-01  -5.869363e-01  -2.597275e-02  5.300059e-01  1.118803e-01  -2.961388e-02  4.232188e-01  -1.284568e-01  7.876788e-01  3.972637e-01  -2.518417e-01  -5.208156e-01  -1.994200e-01  -6.148624e-01  -2.102174e-01  7.942063e-02  8.358262e-02  3.005640e-01  7.298887e-01  7.263168e-01  -8.360656e-01  1.284808e-01  -3.925534e-01  -7.505200e-02  -1.398320e-01  -8.748181e-01  -8.590475e-01  3.295708e-01  -1.005782e-01  2.268061e-01  -3.080912e-01  6.856197e-01  -3.469433e-01  2.450133e-01  -4.933017e-01  -5.352161e-01  1.005053e-01  -3.391505e-02  -5.699782e-01  -4.126476e-01  3.191394e-01  9.431860e-01  -1.388963e-01  -8.087527e-01  1.579938e-01  3.812887e-01  -2.109280e-01  -1.739352e-02  -2.535903e-02  -1.708899e-03  5.570859e-02  -2.258400e-03  -2.623883e-01  2.764715e-01  6.581464e-01  -1.024904e+00  4.280979e-01  6.047733e-01  -1.756092e-01  5.352616e-01  -4.130355e-01  3.578919e-01  1.597160e-01  3.438876e-01  3.154963e-01  -3.022431e-01  4.324366e-01  -7.356301e-01  1.049168e+00  -5.462022e-01  5.871266e-01  2.976025e-01  3.540551e-02  7.757450e-01  -5.649654e-01  1.297339e+00  -7.648270e-02  5.058706e-01  -1.933791e-01  3.944013e-01  7.070255e-01  1.044662e+00  3.413330e-01  -2.449814e-01  -3.529182e-01  7.087370e-01  -7.243806e-01  8.243235e-01  -3.931424e-01  6.537760e-01  3.942817e-01  1.071030e+00  5.999937e-03  7.135085e-01  2.694466e-01  -1.314481e+00  -5.237539e-01  -8.616529e-01  -1.443064e-02  5.006487e-01  -1.281287e+00  -5.950879e-01  -4.846579e-01  1.873305e-01  -5.261469e-01  -2.004313e-01  1.812284e-02  -5.146945e-01  -2.278065e-01  -7.271718e-01  -5.598458e-01  -1.083809e+00  8.704840e-02  -1.523857e-01  -9.567266e-01  -6.496633e-02  4.334154e-01  4.076902e-01  -6.431908e-01  3.227207e-01  -7.229173e-01  5.334232e-01  -1.500582e-01  -5.016660e-02  1.096121e+00  -3.700775e-01  -8.776333e-02  3.315858e-02  1.822505e+00  -5.521574e-02  -1.178953e-01  -7.469786e-01  -4.795555e-02  9.669138e-01  -1.310322e+00  -3.382812e-01  -8.827431e-02  -4.242913e-01  -6.304020e-03  1.878314e-01  -9.173517e-01  -5.989807e-01  2.503253e-01  -1.106140e-01  -2.239848e-01  3.902587e-01  7.372591e-01  1.223024e-01  2.460975e-01  4.872844e-01  5.144649e-01  -8.608661e-01  5.118892e-01  2.425980e-01  4.147274e-01  3.905259e-01  -6.922913e-02  1.315998e-02  4.585855e-01  2.900557e-01  -5.457947e-01  -1.581695e+00  4.627655e-01  6.732193e-01  -1.745732e-01  -3.237368e-01  1.550954e-01  6.603279e-02  -9.041850e-02  -3.895504e-02  -2.200563e-01  -4.598978e-01  -5.904362e-01  -4.217331e-01  1.112319e+00  -3.506445e-01  -2.128798e-01  -7.619252e-02  -4.302611e-01  -2.085464e-01  -1.254531e-01  -1.822449e-01  8.940092e-02  -3.984940e-01  7.957651e-01  3.058760e-01  2.946592e-01  -1.293262e-02  3.027177e-01  -3.215774e-01  7.223589e-01  2.413673e-01  -5.971900e-02  2.205293e-01  -2.693595e-01  2.572147e-01  -1.267051e-01  2.101492e-01  -4.389291e-01  -9.804381e-02  1.696863e+00  6.959400e-01  8.051772e-01  3.108062e-01  -7.997746e-01  1.434848e-01  -2.221721e-01  -7.181782e-02  2.953413e-01  -3.039007e-01  -2.807408e-02  -7.113246e-01  1.600017e-02  -7.652249e-03  5.244719e-01  -3.522495e-01  -9.583370e-02  -3.685179e-01  2.338883e-01  -5.413762e-01  -6.657451e-01  -1.311302e+00  -4.836475e-01  -4.866511e-02  9.539389e-02  5.110794e-02  3.523444e-01  -4.522544e-01  3.568945e-01  3.300014e-01  -9.193674e-01  -7.217237e-01  1.659544e-01  -9.817632e-02  -5.438150e-01  2.460716e-01  -7.383972e-01  1.338287e-01  -4.344598e-03  -1.375868e-02  1.439688e-01  1.468815e+00  2.808776e-02  4.824717e-01  -3.176481e-01  -8.246573e-01  -1.995386e-01  -5.482287e-01  -1.213877e+00  -5.237100e-01  -1.660484e+00  -2.610287e-01  4.364358e-02  -8.984043e-01  8.776379e-01  1.506784e-01  -2.612941e-01  -5.516841e-01  -1.327873e-01  -1.038850e-01  -7.839282e-01  -1.118542e+00  5.253567e-01  4.466871e-01  -2.811576e-01  2.251494e-01  -6.655325e-01  -5.017746e-01  -3.303691e-01  -1.946272e-01  -2.641673e-01  -2.056952e-01  -4.786374e-01  -4.013562e-03  -5.382047e-01  1.209385e-01  2.430810e-01  2.696985e-03  1.227951e+00  3.335204e-01  -4.569567e-01  -6.602311e-01  -1.113018e-01  -1.834459e+00  3.598722e-01  2.678123e-01  2.491290e-01  -2.478654e-02  4.341044e-01  4.944607e-01  -7.391444e-01  -2.568626e-01  4.783668e-01  2.383526e-01  3.688809e-01  -4.331255e-02  1.211553e+00  1.277690e+00  3.541509e-01  4.722664e-01  9.484527e-01  -1.169418e-02  1.274729e+00  2.681472e-01  4.120159e-01  -3.274471e-01  3.062683e-01  -4.257533e-01  -2.759085e-01  -2.375807e-01  1.253266e+00  5.020305e-01  -7.371109e-01  4.223464e-01  5.567963e-01  4.606573e-01  2.137323e-01  1.184519e-01  4.728090e-01  3.287103e-01  -1.722353e-02  1.366981e-01  4.263491e-01  -1.510937e-01  -5.266337e-01  5.528864e-01  1.350578e-02  -1.171262e-01  -9.020336e-02  3.086550e-01  2.530167e-01  1.990446e-01  5.697819e-02  9.965613e-02  -1.523783e-01  7.161220e-03  -1.164307e-01  -4.769258e-01  5.217776e-01  3.626233e-01  -9.193973e-01  -5.932255e-01  -1.639134e-02  1.030650e-01  -2.729460e-01  -5.566931e-01  3.821423e-01  -2.671999e-01  9.524629e-02  -3.649850e-01  -6.032699e-01  -8.783556e-01  2.914496e-01  -3.587590e-02  -8.746392e-01  1.959287e-01  -6.847310e-02  -4.500434e-01  8.362409e-01  -5.126840e-01  6.985875e-01  3.972027e-02  2.722395e-01  1.730432e-01  -9.936935e-01  -5.637793e-01  8.160158e-02  5.697981e-01  -1.321684e+00  2.431149e-01  -4.501258e-01  -7.227361e-02  3.806191e-01  -1.180103e+00  9.008651e-01  -5.366312e-01  -1.217231e-01  -4.944055e-01  2.499061e-01  -1.497446e-01  -1.032067e+00  -1.064783e+00  -5.202337e-02  -1.860642e-01  7.691152e-01  -1.082798e-01  8.910067e-01  -4.757582e-01  6.920999e-01  -5.225604e-01  1.030596e+00  4.395108e-01  1.309147e+00  -2.428179e-01  4.404341e-01  -6.390800e-02  -8.594545e-02  7.359439e-02  3.335794e-01  3.521735e-01  1.151188e-01  1.428734e-02  6.268855e-02  3.367063e-01  9.785298e-01  9.315602e-01  -9.813122e-04  6.799624e-02  -4.377574e-01  -1.678493e-01  1.077248e+00  3.674831e-01  -3.787630e-01  -8.486064e-02  4.188401e-01  -4.876878e-01  -1.103430e-02  7.300243e-01  -4.218253e-01  2.184606e-01  -5.686430e-01  1.979626e-01  -4.261697e-01  4.425463e-01  -1.516380e+00  3.008082e-01  7.998654e-02  4.543915e-01  -5.476624e-01  1.246500e-01  7.299680e-01  1.144390e+00  3.986321e-01  -7.013705e-01  8.770339e-01  2.993052e-01  -7.044771e-02  3.642971e-01  -2.551595e-01  -1.211081e-02  9.623256e-01  5.168537e-01  5.318480e-01  2.287572e-02  5.889366e-02  1.032884e+00  -2.936035e-01  8.920483e-02  -1.244227e-01  -1.456864e-01  8.078443e-01  1.310892e-01  1.572640e-01  -2.530176e-01  1.628968e-01  3.552812e-01  -2.289809e-01  -3.970656e-01  2.129250e-01  5.578985e-01  -5.150740e-01  -8.625811e-01  -3.802355e-01  2.867503e-01  -8.033362e-03  -1.494324e-01  5.438968e-01  7.583084e-03  2.669956e-01  -9.300652e-02  -2.706662e-02  -6.352285e-01  -2.148722e-01  -1.335553e-01  1.244874e+00  -4.023926e-01  -1.309735e-01  2.308116e-01  -1.972620e-01  -8.818664e-02  2.473288e-01  -5.314230e-02  -2.052452e-01  1.486965e-01  -1.681262e-01  7.998966e-02  -5.934107e-02  -1.668625e-01  -5.707684e-01  1.987433e-01  1.043978e-01  6.398090e-01  -6.460169e-03  -3.962557e-01  3.636512e-01  4.831163e-01  -2.131563e-01  5.520483e-01  -3.278739e-01  -2.486899e-01  1.376027e+00  7.422089e-01  -3.694834e-01  -3.180571e-01  1.173175e+00  -8.134843e-02  -3.908678e-02  -2.053904e-01  -2.752263e-01  -3.393810e-01  2.782646e-01  -5.852130e-01  2.933133e-01  -3.277587e-01  3.688423e-01  2.169390e-02  -4.684747e-02  1.740509e-01  3.601510e-01  -1.148665e-01  3.911596e-01  3.069557e-01  -4.538673e-02  2.763827e-01  6.971173e-02  4.846545e-02  -2.455745e-01  3.552689e-02  -3.144821e-01  -2.093997e-01  1.603408e+00  6.248075e-01  4.875094e-01  1.183044e-01  -1.761299e-01  5.516903e-01  4.410347e-01  -4.511183e-01  6.551826e-01  -8.804026e-04  4.820906e-01  -5.083863e-01  4.407514e-01  -2.714540e-01  -2.028400e-02  -5.934451e-01  3.935265e-02  2.307931e-01  -1.089906e-01  9.520333e-02  -8.879879e-01  -5.832247e-01  6.905918e-03  2.172385e-01  4.322553e-01  1.107270e-01  2.994350e-01  -1.984278e-01  2.204178e-01  9.536692e-02  -9.930355e-02  -4.132071e-01  6.101810e-01  2.126122e-01  -8.385431e-01  2.385948e-01  -4.407822e-01  1.626163e-01  3.544610e-01  1.056702e-01  3.620087e-01  -5.464231e-01  -3.752586e-01  1.294132e-02  -6.117555e-01  1.578626e-01  -1.649179e-01  3.061950e-01  -7.168968e-01  -3.161965e-01  -1.188420e-01  -6.792704e-01  1.817366e-01  -2.034799e-01  4.657656e-01  -2.752042e-01  6.599206e-02  -3.553670e-01  1.489822e-01  -5.224429e-02  -1.300378e+00  -9.908870e-01  -5.863882e-01  -2.501010e-01  8.495052e-01  -4.760737e-02  5.731736e-02  -1.656334e-01  -1.736082e-01  -9.449115e-02  -9.996056e-02  1.943354e-01  1.961742e-01  -2.725865e-02  9.221992e-02  -1.070111e-01  7.765988e-02  -2.525276e-01  8.428536e-02  1.772685e-01  7.238390e-01  4.886165e-01  1.276062e-01  3.570045e-03  4.203881e-02  2.688450e-01  -1.969159e-01  1.342156e-01  -5.307397e-01  -1.591165e-01  1.151973e+00  5.003250e-01  7.624231e-01  4.312601e-01  -2.000845e-01  4.122289e-01  3.902788e-01  2.398221e-01  8.473875e-01  2.456698e-01  3.338379e-01  3.865379e-01  7.591614e-01  7.598376e-01  -8.245190e-02  -1.616044e-01  -2.402880e-01  -3.667591e-01  -3.920932e-01  5.912907e-01  -4.834156e-01  -9.885004e-01  3.914234e-01  -3.742666e-02  1.044889e+00  -3.200815e-01  2.138164e-01  -1.854929e-01  2.998327e-01  6.203930e-02  -2.559582e-01  -4.155162e-01  -2.288761e-01  -1.411595e-01  8.482218e-01  -1.074951e-01  -9.609312e-01  6.905516e-01  4.812423e-02  -5.999406e-01  6.931951e-01  2.617579e-01  -8.156361e-02  8.525766e-02  -1.462819e+00  -8.601463e-01  1.211271e-01  -1.009972e+00  -1.834378e+00  1.027007e+00  2.025557e-01  4.039192e-01  -1.648736e-01  -6.836039e-01  1.433245e+00  3.508991e-01  5.998038e-02  6.085815e-01  -2.321392e-01  -3.687791e-01  1.335534e+00  6.832361e-01  -4.681569e-01  -3.343770e-01  6.509605e-01  -9.718478e-02  2.349325e-01  6.251457e-01  -3.310820e-01  -1.769263e-01  3.484724e-01  4.375827e-02  3.723666e-01  2.748030e-01  1.079375e+00  -5.829460e-02  -5.303915e-01  -4.351882e-01  -1.331861e+00  -9.671155e-02  8.454755e-02  4.068486e-01  -2.582652e-01  1.852946e+00  -2.293548e-01  -2.267180e-01  -2.712348e-01  -8.139370e-02  -4.771426e-01  -6.860393e-01  7.791856e-01  7.843886e-02  -3.195603e-01  -1.023981e-01  9.356152e-01  -4.783337e-01  -1.430271e-01  -2.094582e-02  2.002045e-01  -1.269224e-01  2.919209e-01  -4.708257e-01  5.491912e-02  -1.464651e-01  -3.172747e-01  -2.319093e-02  2.708175e-01  -1.642272e-01  -6.046962e-01  -3.989308e-01  3.992282e-01  6.173031e-01  1.223254e-01  -4.490367e-01  6.843399e-01  3.680525e-01  -3.036188e-01  3.628200e-01  -1.854597e-01  1.285258e-01  1.069642e+00  9.095112e-01  6.926836e-01  2.925444e-01  -9.722625e-01  2.001847e-01  3.204780e-04  -5.823963e-02  7.983797e-02  -1.191448e-01  1.400460e-01  -1.072348e-01  -1.188223e-01  -9.825347e-02  -4.659069e-02  -5.503357e-02  -2.044808e-01  1.054224e-02  -1.137341e-01  -6.406455e-02  -4.751281e-01  -4.381593e-01  3.842942e-02  4.474631e-02  -4.990108e-02  -2.856118e-01  2.074129e-01  -2.726635e-01  5.012800e-01  -3.825617e-02  -1.859288e+00  -9.505875e-01  3.993603e-01  2.536068e-01  -1.004342e+00  3.516369e-01  -7.198835e-02  -2.102624e-01  3.458615e-02  -1.502168e-01  9.715662e-02  1.134014e-01  -4.836963e-02  1.286897e-01  -3.161595e-01  -3.494467e-01  -7.164377e-02  -2.504963e-03  -3.866119e-01  7.360636e-02  -3.269640e-01  -4.464802e-01  1.200393e-01  -4.106157e-02  7.070457e-02  -3.105212e-01  9.036410e-02  -4.117885e-01  5.211312e-01  2.682012e-02  -1.314055e+00  -8.842925e-01  -5.878607e-02  -9.922903e-02  -5.818874e-01  9.214094e-02  1.131173e+00  -7.256121e-01  1.133387e-01  8.062568e-02  -6.464533e-01  -8.950920e-01  1.863043e-01  -3.069796e-01  1.753204e+00  9.495120e-01  -5.866002e-01  1.276659e+00  2.415169e+00  -1.141917e+00  -4.811479e-01  -3.139368e-01  1.129226e+00  1.342245e+00  -1.324273e+00  -6.520355e-01  3.838605e-02  -3.892622e-01  3.346723e-02  -1.063266e-01  -5.908918e-01  -6.496377e-01  -5.652783e-01  -5.918021e-02  6.296054e-01  -5.653842e-01  -1.392260e-01  1.286798e-01  -3.345751e-01  -4.130432e-03  -5.374656e-01  3.805664e-01  -4.413156e-02  4.346104e-01  -4.238671e-01  5.123648e-01  8.774429e-02  1.756257e-01  -3.246829e-01  1.639166e-01  7.432095e-01  1.019462e+00  3.266122e-01  -2.141371e-01  -1.653405e-01  2.949304e-01  -1.820752e-01  5.426368e-01  -2.590737e-01  -4.111741e-02  8.008082e-01  9.199226e-01  2.510816e-01  1.566395e-01  -4.260494e-01  1.432019e-01  -6.731820e-02  -6.527597e-03  2.849317e-01  -4.024540e-01  4.117696e-02  -9.785216e-02  6.538438e-03  -4.504405e-01  -4.317943e-01  -3.759052e-01  -2.220238e-01  -2.836720e-02  -5.916184e-01  5.882748e-01  -6.793181e-01  -1.472619e+00  -1.416173e-01  1.661808e-01  7.515166e-01  6.228454e-02  1.592683e-01  -3.109702e-01  4.265238e-01  7.856162e-02  -5.942483e-01  -7.407904e-01  3.488992e-01  4.789398e-01  1.061077e-01  7.935214e-02  -1.244222e-01  -2.502179e-01  -5.385333e-02  -1.318832e-01  2.341111e-02  8.669604e-02  -2.057141e-01  -2.084996e-01  -3.231061e-01  -3.330086e-01  4.494253e-01  -2.821741e-02  4.162072e-02  -1.168018e-02  3.755981e-01  6.012281e-01  1.235676e-01  -4.542772e-01  -1.056135e-01  3.980979e-01  7.044091e-02  4.029602e-01  2.753263e-01  2.393923e-01  4.164813e-01  1.503117e-01  7.156660e-02  1.126887e-01  -5.069523e-01  4.302084e-01  3.079710e-01  -8.908112e-01  -3.151195e-02  3.951718e-01  -3.672532e-01  -5.871692e-01  -1.925549e-01  -3.173054e-01  9.480619e-01  9.250619e-01  -4.065725e-01  9.368860e-01  1.123650e+00  -7.748714e-01  -3.665979e-01  -4.283727e-01  4.774613e-01  8.957964e-01  -1.046296e+00  -4.268255e-01  2.672502e-01  -5.802392e-01  2.879378e-01  -6.706282e-02  -7.452944e-01  -8.242492e-01  2.873976e-01  -5.391831e-02  -3.319886e-01  5.908421e-01  -9.467796e-01  2.482218e-01  9.810518e-02  5.037322e-01  2.130661e-02  6.876681e-01  7.948700e-02  2.444610e-02  -3.353517e-01  -5.555084e-01  -3.692473e-01  -4.365294e-01  -1.033627e+00  -9.276175e-01  -1.168013e+00  -4.418120e-01  2.518366e-01  -5.215082e-01  6.206381e-01  1.450225e-01  -1.116355e-01  -3.671474e-01  -2.016724e-01  -4.149323e-01  -7.176276e-01  -1.026255e+00  1.104919e-01  3.490676e-02  -6.482939e-01  8.384990e-02  -5.573825e-01  -5.898606e-02  -1.904052e-01  -3.897810e-01  -2.258100e-01  2.366984e-01  -2.717282e-01  -6.872541e-02  -1.075333e+00  -8.650406e-01  1.591059e-01  -1.582170e-01  -7.464401e-01  -8.230887e-02  -7.188790e-01  -1.926904e-01  2.565625e-01  -4.132798e-01  2.934932e-01  -4.208609e-03  -2.047542e-02  -3.831069e-02  2.389880e-01  1.921813e-01  -1.011526e+00  -7.242415e-01  4.377058e-01  4.108410e-01  4.517007e-01  6.185551e-01  1.527823e-02  6.217098e-01  -1.909096e-01  1.861675e-01  7.060498e-02  -2.617381e-01  -2.347880e-01  1.321246e-01  -4.458485e-02  5.182052e-01  6.448405e-01  8.622717e-01  -1.102226e-01  -3.723016e-01  -5.405393e-01  -3.593331e-01  -3.892122e-01  -1.166398e-01  3.890945e-01  3.428853e-01  5.050434e-01  5.176273e-01  3.106249e-01  2.931327e-01  7.149748e-01  2.546394e-01  -4.161775e-01  5.700566e-02  9.330843e-01  -4.700341e-01  8.974820e-02  2.037171e-01  -4.747079e-01  2.848166e-01  -5.330459e-01  -6.282371e-02  -1.199533e-01  -1.816360e-01  6.405129e-01  3.767215e-01  8.006260e-02  -2.453285e-01  1.093923e+00  -1.857545e-01  5.774999e-01  2.235724e-01  -3.260743e-01  9.403703e-01  -7.102782e-01  3.075271e-01  -6.299941e-02  3.635285e-01  -1.916796e-01  1.070636e-01  1.126390e+00  7.252204e-01  -7.189487e-01  -7.349190e-01  2.935821e-01  -2.501657e-01  -2.922681e+00  -1.100490e-02  -7.377556e-01  7.138877e-02  -5.595946e-01  1.517704e-02  -2.563408e+00  3.848492e-01  -8.982607e-01  -4.542298e-01  -3.960380e-01  -1.686487e-01  7.469604e-01  2.197823e-01  2.004163e-01  8.802940e-01  6.547331e-01  -1.353100e+00  -1.185232e+00  6.530488e-01  -2.336238e-01  -4.964901e-02  -7.085789e-01  -2.734734e-01  8.092149e-01  -2.881365e-02  6.543992e-01  3.615091e-01  -1.400951e+00  1.010738e-01  -1.264627e-01  -5.807495e-02  3.928699e-01  -3.892130e-02  -4.982532e-02  3.991899e-02  -1.208362e-01  2.096890e-01  -3.923828e-01  -1.034339e-01  7.792634e-02  8.142848e-02  -3.406420e-01  3.503467e-01  -3.876555e-01  -2.312859e-01  2.052832e-02  -6.599754e-02  8.776173e-02  -2.564886e-01  5.425634e-02  -2.476958e-01  6.155573e-01  6.983812e-02  -1.757033e+00  -9.543679e-01  3.161638e-01  -2.005276e-01  -6.726648e-01  3.566742e-01  2.323243e-01  -8.402457e-03  -2.217024e-01  5.754337e-02  -2.122954e-01  2.968211e-01  1.714848e-01  -1.096348e-01  3.697042e-01  -2.682147e-01  -9.694482e-02  -7.329737e-02  8.166816e-01  2.049220e-01  -4.521840e-01  -6.113303e-01  1.647122e-01  5.492939e-01  -5.479572e-01  -6.070551e-01  2.179782e-01  -4.603986e-01  3.514111e-01  1.389666e-02  -9.172621e-01  -6.976783e-01  2.608512e-01  -2.083046e-01  -4.956659e-01  3.030122e-01  -3.163613e-01  2.334725e-01  -1.049126e-01  1.281022e-01  -1.371212e-01  4.328018e-02  5.374791e-02  1.634162e-01  -1.869287e-01  -1.401892e-01  -1.996698e-01  2.774994e-01  -3.155771e-01  -1.601132e-01  -6.904063e-01  -7.780337e-01  4.356941e-01  2.670020e-02  1.832071e-01  -5.812281e-01  1.207023e-01  -1.949417e-01  -4.236444e-02  -3.180618e-01  -7.635124e-01  -6.719361e-01  -1.718621e-01  -2.168835e-02  2.941022e-01  -3.984111e-01  4.926856e-01  2.758054e-01  -8.124723e-02  -4.904470e-02  -3.343470e-01  -4.208876e-01  -1.439608e-01  1.887929e-01  3.199009e-01  1.335172e-01  1.675558e-01  3.110974e-01  2.955430e-01  8.689676e-02  7.574784e-01  6.402273e-01  3.166015e-01  1.715081e-01  -3.226283e-01  5.703937e-01  -1.745191e-01  3.990136e-01  2.072789e-01  2.819121e-01  4.851992e-01  7.299411e-01  3.876410e-01  3.455838e-01  -2.345871e-01  3.724954e-01  -3.804371e-01  -3.809308e-02  -3.123628e-01  -5.043057e-01  1.199678e-01  1.618706e-01  -3.312682e-01  -4.413302e-01  -1.096811e-01  -1.464230e-01  2.132125e-02  -4.421875e-01  -1.157633e-01  2.880293e-02  -6.357555e-01  -1.226752e+00  -6.453828e-01  -8.766217e-02  -2.728190e-01  7.411308e-02  -2.932391e-03  -8.959951e-02  3.597926e-01  1.038264e-01  -4.888329e-01  -2.216787e-01  4.742716e-01  -6.812625e-03  -7.363200e-01  5.771027e-01  -3.719310e-01  -8.501177e-02  3.648889e-02  -2.087036e-01  1.231484e-01  -9.057171e-02  -3.033343e-01  -1.793912e-01  -2.653291e-01  -1.853682e-01  -3.295007e-01  1.532782e-01  -3.118580e-01  -2.383382e-01  -8.333765e-01  -7.044111e-01  2.672321e-01  -6.526748e-02  1.641973e-01  -3.328027e-01  2.528224e-01  -5.872570e-01  1.719849e-01  -3.431286e-01  -9.702504e-01  -9.561069e-01  -7.493376e-01  -3.502983e-01  3.138400e-01  -4.754676e-01  3.291617e-01  3.707149e-01  -1.441036e-01  1.778336e-02  -5.426862e-02  5.017781e-02  7.894897e-02  2.197900e-01  -2.565638e-01  -2.364332e-01  -3.488005e-01  -1.443401e-01  -1.816731e-01  -1.283291e-01  4.464547e-01  6.496517e-01  7.071608e-01  -6.941933e-02  2.860056e-01  -4.582073e-02  -4.836185e-01  1.591575e-01  -7.640306e-01  -3.398739e-01  6.298357e-01  1.216403e-01  -2.048787e-01  -3.587109e-01  -1.563685e-01  3.352506e-01  7.595344e-01  -3.354953e-01  -1.248819e-02  4.833423e-01  1.774743e-01  -4.470049e-01  -3.102582e-01  -4.005027e-01  9.972830e-01  1.030626e+00  -4.460186e-01  7.818228e-01  1.168158e+00  8.180865e-01  -7.847818e-01  -1.843675e+00  -2.761328e-02  7.231274e-01  -8.203779e-01  -8.554603e-01  7.611225e-02  -1.854151e-01  -2.677947e-01  -4.343508e-01  -5.332577e-01  -4.780541e-01  3.002686e-01  1.074414e-01  -3.131026e-01  5.730407e-01  -5.740270e-01  -1.351827e-01  -1.780742e-01  1.054424e-02  -6.569076e-02  -7.568791e-02  -1.754497e-01  3.010558e-01  6.742772e-02  -1.638970e-01  -4.512205e-01  2.465433e-02  3.338093e-02  -1.165800e-01  -7.725315e-01  -9.580531e-01  3.780972e-03  2.152278e-01  -2.458742e-01  -4.696868e-01  1.228162e-01  -3.181789e-01  -9.587807e-02  -3.620119e-01  -6.754861e-01  -6.706889e-01  5.180324e-01  4.802030e-01  -4.487408e-01  2.065718e-01  -5.246142e-01  3.658739e-01  -8.634455e-01  3.953445e-01  2.114611e+00  3.235534e-01  -7.492994e-01  6.391892e-01  2.214859e-01  9.370546e-01  3.568980e-01  8.350197e-02  -7.087057e-01  4.403667e-01  -5.874850e-01  1.125726e-01  -2.003171e+00  6.289144e-01  -8.858064e-01  -5.248350e-01  4.056737e-01  2.458973e-01  7.285035e-01  7.095429e-01  -7.087181e-01  -8.409116e-02  -6.553082e-01  4.836714e-02  6.911143e-01  -2.172989e-01  2.042013e-01  4.495311e-01  -1.731050e-01  2.541558e-01  1.105621e-01  3.481939e-01  9.346477e-02  4.277058e-01  -2.175683e-01  -1.741712e-02  1.745681e-01  2.864020e-01  -3.963639e-01  2.211789e-01  5.863184e-01  6.930603e-01  3.307414e-01  -5.979945e-01  2.623570e-01  1.986264e-01  -2.743829e-01  4.487160e-01  -3.244108e-01  -9.836889e-02  1.123610e+00  9.460430e-01  -8.121844e-02  -2.694941e-02  7.156761e-01  5.067220e-01  -7.032110e-01  -4.088399e-01  -3.078107e-01  -8.198297e-02  4.156198e-01  -1.181598e+00  -4.250240e-01  5.617191e-02  -1.257327e-01  -4.626228e-01  2.204516e-01  -5.983054e-01  -1.051814e+00  8.035154e-01  -5.147457e-02  1.109346e-01  -2.180310e-01  1.483725e+00  -4.953319e-01  -5.076894e-01  4.341053e-01  2.132024e-01  -1.159212e-01  1.249877e-01  9.016615e-01  3.082124e-01  -3.424349e-01  5.693271e-02  8.158048e-01  -4.811720e-01  1.662329e-01  1.902726e-01  -8.901737e-02  1.811189e-02  -3.616697e-01  5.190980e-02  2.899361e-01  -1.431416e-02  5.585588e-01  1.744494e-01  5.701136e-02  -3.613583e-01  1.086539e+00  -1.340573e-01  3.789970e-01  5.457116e-01  -3.873778e-01  5.862840e-01  -4.721736e-01  6.448935e-01  5.960035e-02  4.686253e-01  -1.742321e-01  1.684213e-01  1.208918e+00  1.177979e+00  -3.499785e-01  -3.388562e-02  4.237323e-01  -4.772362e-01  2.463490e-02  8.423628e-01  5.972126e-01  -4.649324e-01  2.970134e-01  6.804179e-01  7.284468e-01  6.146458e-01  -3.062496e-01  -1.205974e+00  3.820261e-02  -9.061244e-01  -8.894547e-01  6.143065e-01  2.437428e-01  3.803242e-01  5.033256e-01  -7.552793e-01  1.260870e+00  2.637011e-01  -4.691997e-01  1.983881e-01  -1.413697e-01  -2.179998e-01  4.956534e-01  4.170757e-01  -4.096773e-01  -2.294621e-01  -1.508989e-01  -2.891495e-01  -1.267318e-01  -1.790117e-01  -1.566070e-01  7.094090e-02  9.762346e-02  2.129321e-02  -4.629614e-02  9.579612e-02  7.626846e-02  -6.206273e-03  -3.207291e-01  3.491158e-02  9.772301e-02  4.134113e-02  -3.815902e-01  -3.033250e-01  -3.737607e-02  -1.792586e-01  -2.492094e-01  -2.080673e-01  -2.370013e-01  -2.591285e-01  -4.912832e-01  -3.790216e-01  -4.617276e-02  -2.305017e-01  3.692126e-01  1.917205e-01  4.283878e-01  4.094934e-02  9.905747e-01  5.059440e-02  7.134210e-01  1.868708e-01  1.035061e+00  -3.368958e-01  1.145220e+00  1.643396e-01  3.664886e-01  1.167281e-01  3.766672e-01  4.432212e-02  7.425398e-01  5.998011e-01  2.774326e-01  -2.825011e-02  -2.238971e-01  -5.532058e-01  1.287138e-01  6.388833e-01  1.619931e-01  1.603556e-01  2.946924e-01  3.856480e-01  1.225591e-01  2.364221e-01  -4.174876e-01  -5.122569e-02  1.234639e+00  -3.853303e-01  -1.409416e-01  7.800602e-02  -1.965506e-01  1.187922e-02  5.793490e-03  -6.145861e-02  1.756508e-01  1.164510e-01  3.509873e-01  2.437816e-01  -1.544510e-01  5.471766e-02  9.213929e-02  -1.285238e-01  3.372207e-01  3.359819e-01  -5.175737e-02  -1.296320e-01  1.935393e-01  4.996811e-01  -5.531998e-02  4.093672e-01  -3.431061e-01  -3.621916e-01  1.433923e+00  8.703741e-01  6.768917e-01  5.771953e-01  -4.393949e-01  -1.043954e-01  -1.876375e+00  -1.240943e+00  -9.686496e-02  -2.712525e-01  -4.337675e-01  -3.258728e-01  -2.994305e+00  -7.403092e-02  -1.020256e+00  3.879785e-02  4.637061e-01  2.275237e-01  2.001708e+00  2.132888e-02  -1.125659e-01  1.473794e-01  1.020546e-01  -2.695904e+00  2.254448e-01  4.502804e-01  3.424475e-01  -5.073943e-02  5.792583e-01  3.059022e-01  -8.715449e-01  -3.584374e-02  3.913120e-01  2.039935e-01  -5.985784e-01  6.943102e-01  -2.331088e-01  1.766141e-01  4.169670e-01  1.653692e-01  2.561456e-01  -3.565160e-01  -1.518222e-01  -9.216324e-02  -7.997079e-01  8.984844e-02  -1.705149e-01  1.975925e-01  -6.993862e-01  -2.121288e-01  -2.312811e-01  -6.421650e-01  8.608175e-02  -2.418169e-01  6.260446e-01  -3.755797e-01  3.374825e-02  -3.591311e-01  1.202320e-01  -3.608627e-01  -8.555318e-01  -9.409186e-01  -5.186532e-01  -7.001565e-01  -5.039599e-01  -1.218025e-01  -9.003820e-02  1.433664e-01  -1.453119e-01  -9.668927e-02  5.587962e-02  -4.740966e-02  2.264777e-01  3.782299e-01  2.646251e-01  4.538597e-01  -6.846197e-01  3.431024e-01  2.500437e-01  -7.883242e-02  7.989337e-02  -5.680820e-01  2.244022e-02  4.785565e-01  -3.286549e-01  -2.832487e-01  -4.374870e-01  -7.782397e-01  -5.536957e-01  -5.928359e-01  -5.916350e-01  -6.492104e-01  2.000106e-01  -6.139660e-02  -5.050592e-01  5.120542e-02  1.597907e-02  -6.223984e-01  -1.026703e-01  -2.127052e-01  5.025404e-02  -8.321287e-03  -1.669982e-01  -1.789035e-01  5.072808e-01  -2.617732e-01  -4.910655e-02  1.327900e-02  4.145558e-01  -1.883117e-01  -7.339795e-01  -9.552464e-01  -4.988349e-01  4.143857e-01  -1.662020e-01  -2.850271e-01  2.132562e-01  -4.502454e-01  1.433510e-01  1.612863e-01  -5.099497e-01  -5.472118e-01  -6.076390e-01  -1.961898e-01  1.279608e+00  -2.553084e-01  -5.669356e-02  -2.159580e-02  -2.433910e-01  -2.708464e-02  -8.494368e-02  -1.892635e-01  2.790248e-01  3.052094e-02  3.369167e-01  1.162230e-01  -1.407657e-02  -2.474595e-01  1.175964e-01  -2.494786e-01  2.115253e-01  3.761373e-01  1.620411e-01  -1.026395e-01  3.133799e-01  4.149378e-01  -1.049304e-01  4.242398e-01  -5.313826e-01  -4.487534e-02  1.733165e+00  6.240329e-01  -3.231458e-01  -2.774652e-01  7.064225e-01  -4.310776e-03  -1.715284e+00  -3.540311e-01  -2.534108e-01  -1.335173e-01  -1.364639e+00  3.062766e-01  -1.472618e+00  -4.543028e-01  -8.071247e-01  -3.457031e-01  -4.346639e-01  7.581308e-01  8.346165e-01  -1.990753e-03  -6.818649e-02  1.390982e-01  1.011934e+00  -1.285007e+00  3.734468e-02  5.004489e-01  -1.434625e-01  -3.548894e-01  -7.870419e-01  -8.145403e-01  1.131490e+00  2.840006e-02  -5.627927e-01  -6.128683e-02  8.225229e-01  -5.280945e-01  -9.620526e-02  -1.274147e-01  -6.290263e-02  -8.424052e-03  -1.589643e-01  1.373030e-01  1.960809e-01  -1.225469e-01  5.313203e-01  6.766829e-02  3.959055e-01  -1.780356e-01  2.484251e-01  3.063683e-01  7.659837e-01  5.975907e-01  -1.329085e-01  6.897354e-02  -2.776749e-01  6.500961e-03  -6.282834e-02  5.818292e-01  -3.239648e-01  1.260881e-03  1.073614e+00  1.096094e+00  -3.748629e-01  -8.275570e-02  1.048023e-01  -4.127882e-01  -4.976556e-01  3.256157e-01  -7.998222e-01  2.873635e-01  -1.261370e+00  -2.614878e-01  -7.556798e-01  -4.037365e-01  -4.660492e-02  5.823664e-01  2.963606e-01  1.691054e-01  1.071113e-01  1.141601e-01  7.784290e-01  1.186228e+00  1.652198e-01  -5.809290e-01  -6.794693e-01  1.558988e-01  -3.268795e-01  3.234158e-01  -2.466864e-01  -1.211685e-03  2.270983e-01  4.653564e-01  5.404806e-01  1.522880e-01  -1.230687e+00  3.963899e-01  5.004564e-02  1.159752e-02  1.153559e-01  4.250058e-03  -9.435472e-02  2.887552e-01  7.153170e-02  5.970983e-02  4.468071e-02  1.407869e-01  -6.721853e-02  1.262935e-01  3.689796e-01  1.992446e-01  -9.142258e-02  -4.076634e-01  6.413185e-02  2.186552e-01  -4.676620e-01  -1.229187e-01  -1.974762e-01  -3.506974e-01  4.834982e-01  2.754447e-01  -1.944166e+00  -7.225832e-01  4.080470e-01  3.450594e-01  -2.505187e-01  1.781747e-01  -1.674436e+00  -1.424408e+00  -3.326013e-02  2.036822e-01  -9.444842e-01  3.453661e-01  -2.809150e+00  2.061672e-01  -1.442456e+00  -5.695775e-01  6.114073e-01  4.928393e-01  1.265981e+00  7.990934e-02  1.662700e-01  8.553533e-02  6.048075e-01  -2.083751e+00  7.375900e-02  1.520837e-01  1.065430e-01  4.620176e-01  6.597284e-01  4.171483e-01  -5.708535e-01  2.020613e-01  1.177567e-01  2.394375e-01  2.558978e-01  2.872201e-01  1.214309e+00  -6.386521e-01  4.528011e-01  -3.482762e-01  4.069746e-01  -2.815609e-01  4.816201e-01  -7.278981e-01  5.653588e-01  5.064620e-01  3.606147e-02  2.391140e-01  8.851242e-01  4.948036e-01  -3.673412e-01  -1.049645e+00  4.174009e-01  1.378572e-01  -5.381504e-02  -5.971900e-01  3.000638e-01  2.605502e-02  5.588272e-02  -7.033484e-02  -6.858770e-02  5.090168e-02  3.446223e-01  4.462091e-01  -1.674769e-02  2.113351e-01  -2.185795e-01  1.323415e-01  -1.406287e-01  -1.281925e-01  3.701850e-01  -4.711111e-02  -3.988811e-01  7.392101e-02  -5.384188e-01  -2.422101e-01  4.731205e-01  -2.851804e-02  -8.324618e-02  -4.334915e-03  7.649855e-02  4.304521e-01  -1.049060e-01  -2.980545e-02  -9.703701e-02  1.610105e-02  1.877365e-01  2.812031e-01  4.155270e-01  5.778233e-01  5.176673e-02  1.037662e-01  -3.151166e-01  -3.016987e-01  5.228660e-01  -1.066324e-01  -2.329197e-02  1.404873e-01  1.348835e-01  -3.078920e-01  2.743280e-01  2.430582e-01  1.589784e-01  1.952393e-01  -2.569291e-01  2.471151e-02  9.858214e-02  -3.058735e-01  -1.066458e-01  4.797607e-01  9.142995e-01  6.295066e-01  1.243124e-02  -3.587522e-01  2.329698e-01  -3.964866e-02  -2.294875e-01  4.019870e-01  -4.231228e-01  -3.847903e-01  1.079503e+00  3.457235e-01  -2.634604e-01  2.372048e-02  1.021973e+00  -7.402096e-01  -1.420123e-01  1.217166e-01  -5.475675e-01  -2.813607e-01  3.402806e-01  -2.621301e-01  1.262531e-01  -2.404516e-01  6.770878e-01  3.119231e-01  -3.022537e-02  1.093862e-01  -1.197679e-01  -4.588799e-01  6.969382e-01  3.477175e-01  -8.125786e-01  -6.310277e-02  -1.415360e-01  6.381837e-01  -4.990745e-01  1.280265e-01  -2.760473e-01  4.757605e-02  9.689267e-01  8.646774e-01  -4.824707e-01  -1.806701e-01  -5.112366e-01  -3.869789e-01  -1.567056e-01  -3.468118e-01  -4.556411e-01  1.332044e-01  -4.272090e-01  3.808840e-01  -3.139476e-01  -1.337120e-02  -4.540362e-01  -4.699301e-03  -3.626363e-01  1.445299e-01  -2.123413e-01  -2.638943e-01  1.752664e-01  3.461802e-03  6.037408e-03  -6.705287e-02  7.176794e-03  -3.621267e-01  -3.581653e-01  -3.506576e-01  -2.200709e-01  -2.532662e-01  -5.355979e-01  -3.469226e-01  -1.482425e-01  -2.773087e-02  3.046532e-01  -7.682803e-01  4.605524e-01  -5.913172e-01  8.501159e-02  3.425134e-01  2.131781e-01  2.097644e-01  6.642229e-01  7.069601e-01  9.968646e-01  -2.470337e-01  4.685424e-02  -7.385664e-01  5.823136e-01  3.796629e-01  7.231463e-01  2.107252e-01  -1.179811e-01  1.089656e-02  -7.112606e-01  6.626940e-01  -2.000891e-01  2.026046e-01  4.331012e-02  3.057069e-01  2.747861e-01  4.823475e-01  -4.917563e-01  -1.883668e-01  7.138488e-01  -4.259528e-01  4.706911e-02  4.232906e-01  9.083359e-03  4.683818e-01  -1.907912e-01  4.886231e-01  -5.721539e-02  4.694688e-01  -1.165954e+00  9.659041e-02  2.779011e-01  2.556245e-01  -4.515991e-01  3.333405e-01  8.544582e-01  7.377526e-01  6.026149e-01  -5.891978e-01  5.608976e-01  3.040999e-01  3.249973e-02  6.098155e-01  -3.472283e-01  3.897791e-02  1.034052e+00  7.541628e-01  5.074925e-01  -4.796387e-02  -1.314766e-02  1.001236e+00  -9.107073e-02  2.049904e-01  3.794079e-01  -1.086142e-01  4.359002e-01  -2.308199e-01  1.868969e-01  6.252806e-03  2.628767e-01  5.789719e-01  -1.699635e-01  1.069395e-01  5.762252e-01  1.972831e-01  -5.013319e-01  -9.901709e-01  2.679520e-01  7.750330e-01  -2.503912e-01  -3.993981e-01  5.628147e-01  -2.073706e-01  2.737964e-01  -1.980874e-02  -5.418448e-01  -3.668020e-01  -6.275567e-01  4.318519e-02  6.361110e-01  -6.629512e-01  2.145176e-01  -5.621276e-01  -9.911150e-02  -3.738866e-01  1.331426e-01  -5.098467e-02  2.153793e-02  -9.199539e-02  1.755882e-01  -2.897502e-01  2.076241e-01  -2.925719e-01  4.882482e-02  2.799104e-02  2.945035e-01  9.250239e-01  -1.004618e-01  -9.584861e-02  8.205307e-02  2.839857e-01  -3.805266e-01  5.322039e-01  -1.570137e-01  3.159540e-01  1.229692e+00  9.283044e-01  -1.233280e-01  -9.338436e-02  1.135494e+00  -2.582588e-01  7.545993e-02  -1.832538e-03  1.398731e-01  -3.264064e-01  4.139897e-01  1.164997e-01  3.603260e-01  7.729011e-02  3.088986e-01  -2.265748e-01  2.042671e-01  -1.905839e-03  -1.701356e-01  6.352205e-02  6.159229e-01  4.596419e-01  8.743785e-02  2.496579e-01  2.898307e-01  1.949904e-01  2.758416e-02  1.630417e-01  -4.997951e-01  -3.109538e-01  1.321042e+00  8.316671e-01  7.305364e-02  1.861541e-01  1.868818e-01  3.697148e-01  7.908005e-01  7.163432e-01  2.805751e-01  1.538820e-01  2.808164e-01  8.866411e-02  1.536147e-01  6.231651e-01  3.558750e-01  7.616979e-01  3.762604e-01  2.815804e-01  4.765981e-01  4.654361e-01  4.899521e-01  4.779212e-01  -5.177321e-01  2.912394e-01  -4.075761e-01  1.164653e-01  2.171348e-01  4.836824e-01  4.016257e-01  6.437905e-01  4.726433e-01  4.473200e-01  -2.986285e-01  1.829629e-01  4.630824e-01  -5.643109e-01  2.800106e-01  4.561196e-01  -5.136404e-02  2.542372e-01  -3.979091e-01  2.773719e-01  -7.571227e-02  3.077800e-01  -4.930733e-02  1.393786e-01  1.273692e-01  3.561217e-02  -3.341386e-01  3.379613e-01  6.568803e-01  7.346429e-01  5.785011e-03  -6.951437e-01  3.381880e-01  3.861339e-01  -2.782077e-01  6.045026e-01  -1.988738e-01  2.806271e-01  8.471965e-01  9.674612e-01  3.975573e-01  1.587313e-01  -7.095417e-01  2.824218e-01  2.437104e-01  5.115445e-01  4.684417e-01  1.235522e-01  6.888219e-01  -4.985804e-01  4.195546e-01  -1.776862e-01  -5.539606e-01  9.198527e-02  -2.984902e-01  3.140425e-01  -8.169011e-01  3.507290e-01  -3.911663e-01  -6.957421e-01  2.920543e-01  -9.910757e-01  1.080423e+00  -4.623311e-01  8.198648e-02  -8.380146e-02  2.103849e-01  -1.895181e-01  -7.438115e-01  -5.954632e-01  1.454442e-01  -2.743352e-01  -9.338106e-02  2.322444e-01  -7.066600e-01  2.807337e-01  -1.321007e-01  3.116597e-01  2.889989e-01  1.158543e-01  2.642967e-01  6.966690e-01  4.777654e-02  -4.883360e-01  -2.677320e-01  -6.651860e-01  -4.176300e-01  -1.637427e-01  -1.412915e+00  -7.598093e-01  -1.979287e-02  3.835340e-01  1.890732e-01  -3.488311e-01  -1.168920e-01  -3.867514e-01  -1.753816e-01  -4.708516e-01  -6.465571e-01  -5.537592e-01  1.936060e-01  1.490767e-01  -2.599355e-01  5.467336e-01  9.602163e-02  -1.997920e-01  1.205418e-01  -3.422155e-01  4.665295e-01  1.313490e-01  1.597531e-01  -1.027049e-01  -1.028498e-01  -7.053882e-01  -3.465310e-01  -4.414941e-01  -2.557750e-01  -7.433899e-02  -4.174966e-01  -1.652655e+00  -3.541292e-01  1.589786e-01  5.039338e-01  -2.858688e-01  5.987258e-02  -5.528488e-01  2.623035e-01  -2.813368e-01  -2.801291e-01  -7.315660e-01  -3.360693e-01  4.885148e-02  4.519152e-01  -4.253357e-01  -7.350115e-01  7.085025e-01  -1.071584e-01  -2.528133e-01  5.128384e-01  9.614856e-02  9.647853e-02  1.542644e-01  -1.382584e+00  -6.380418e-01  4.468187e-01  -9.327453e-01  -2.549130e+00  9.755812e-01  4.565399e-01  2.918955e-01  -7.108621e-02  -1.178646e+00  1.246791e+00  4.464486e-01  -1.031413e-01  7.389504e-01  -3.386305e-01  3.113870e-01  9.398853e-01  7.808177e-01  6.596360e-01  2.355784e-01  -1.294175e+00  3.974272e-01  1.582484e-02  4.134013e-02  1.916127e-01  1.652908e-03  -1.242566e-01  1.780567e-01  2.549277e-02  -3.126178e-02  -9.976390e-02  4.088582e-03  -1.556666e-01  -3.021852e-02  1.348112e-01  1.360517e-02  -2.699785e-01  -2.740788e-01  -1.519290e-02  2.058060e-01  -2.140211e-01  -5.056284e-01  -7.681779e-02  -4.361665e-02  4.218408e-01  3.903393e-01  -1.737558e+00  -7.718477e-01  5.818233e-01  1.631230e-01  -9.832599e-01  4.058728e-01  -5.877836e-02  1.752264e-03  2.445276e-01  -4.778054e-02  -9.776516e-02  -1.196862e-01  -2.904477e-02  -1.628407e-01  -1.752910e-01  -8.580755e-02  -1.621920e-01  9.832228e-03  2.186014e-01  -1.871692e-01  -4.351861e-01  -5.160356e-01  -6.900994e-02  2.954657e-01  -6.503045e-02  -1.579704e-01  2.690989e-01  -6.086695e-01  5.351677e-01  1.749894e-01  -1.501806e+00  -1.091285e+00  6.678997e-01  3.081042e-01  -1.180114e+00  4.433068e-02  1.231783e-01  1.282897e-01  2.144875e-01  7.526870e-02  -2.380970e-01  5.162768e-02  3.708072e-02  -1.027391e-01  -1.988229e-01  9.298386e-02  -3.645838e-02  -1.579412e-01  -4.659237e-02  -1.149733e-01  -5.568293e-01  -1.863743e-01  -9.278372e-02  -2.754155e-02  1.081150e-02  -3.326368e-02  1.399104e-01  -3.039557e-01  4.529258e-01  4.535777e-01  -1.845177e+00  -9.452230e-01  1.032392e-01  -2.180892e-01  -3.407396e-01  3.508558e-01  -1.219435e+00  7.393367e-02  -6.075996e-01  2.220882e-01  -1.109458e+00  -7.233343e-01  -1.251339e+00  5.351442e-01  -9.649503e-01  -6.519914e-02  -1.593911e-01  -3.568074e-01  -1.203875e+00  7.809711e-02  -3.477003e-01  2.364523e-01  6.213028e-01  3.104840e-01  -2.223383e-01  -5.144567e-01  2.059744e-02  -4.483460e-01  -3.389297e-02  -1.817968e-01  -5.730605e-01  -6.317479e-01  -2.393446e-01  -4.210255e-02  1.010480e+00  -2.416844e-01  -8.418968e-02  -7.622989e-02  -1.010581e-01  -1.972261e-01  1.963900e-01  -7.270437e-01  3.772168e-01  -1.868094e-01  1.151115e-01  3.705733e-01  -1.341666e-01  -9.534539e-02  5.294317e-02  -4.006663e-02  5.209339e-01  4.897004e-01  -1.892610e-01  -2.112810e-01  1.430147e-01  4.372862e-01  1.023152e-02  8.945303e-03  -2.258910e-01  -3.296164e-01  1.262723e+00  5.147067e-01  5.368168e-01  1.521036e-01  -9.035550e-01  4.351543e-01  -8.883601e-02  3.994094e-01  1.195026e-03  4.751824e-01  2.825600e-01  -3.882506e-01  -8.351699e-02  -1.199660e-01  -3.745736e-01  2.876026e-01  -4.137441e-01  3.729990e-01  -5.852091e-01  -3.301243e-01  -5.802756e-02  -7.777166e-01  5.654645e-02  -1.330714e-01  3.851955e-01  -1.000925e-01  1.032134e-01  -4.681274e-01  3.314801e-01  -1.799553e-01  -1.245353e+00  -1.045064e+00  -9.873585e-02  -4.324935e-01  -6.022106e-01  3.685359e-01  1.586814e-01  4.927901e-01  -3.918520e-01  -1.822356e-01  1.166576e-01  1.699272e-01  -3.873656e-01  -1.365084e-01  -1.242018e-01  1.063635e-01  -6.220490e-01  -9.802423e-02  6.487041e-01  9.226855e-02  -7.945156e-01  -1.117411e+00  -1.132852e-02  4.784851e-02  -3.169717e-01  -5.858676e-01  -1.375189e-01  -5.097305e-01  -2.894649e-01  -3.753963e-01  -5.284560e-01  -6.927668e-01  -3.670700e-01  -5.500116e-01  4.546522e-01  1.722288e-01  -2.084349e+00  -1.753813e-01  -5.664549e-01  -4.358709e-01  -4.905948e-01  5.821375e-01  -2.312764e+00  -2.656920e-01  -7.706941e-01  -4.692452e-01  -1.886614e-01  3.788967e-01  -2.082279e-01  -3.739175e-02  -2.291788e-01  7.195612e-01  5.797871e-01  -8.881709e-02  -4.433901e-01  1.916676e-01  -1.912045e-01  -2.398716e-01  -6.179152e-01  -4.296961e-01  1.011978e+00  -6.203318e-02  -2.651441e-01  -3.627739e-01  3.419970e-02  -1.347624e-01  7.443591e-01  -1.745481e-01  -1.465376e-02  -2.512944e-01  9.526597e-01  -1.796111e-01  9.174414e-01  -1.623930e-01  7.553653e-01  1.156897e+00  -1.839429e-01  3.720400e-01  6.340530e-02  6.725100e-01  1.039094e-01  -3.247879e-01  -1.065593e+00  1.375538e+00  -6.516167e-02  -1.223162e+00  -1.513752e-01  -1.419806e-01  -9.800056e-02  -2.645752e-01  1.266741e-01  -7.429233e-02  -2.100354e-01  5.481755e-02  -7.079939e-01  2.490011e-01  -4.824541e-01  1.121759e-01  -4.993670e-01  -8.923635e-02  -4.499303e-01  7.073672e-01  -5.272166e-01  7.451130e-01  -6.102602e-01  7.043079e-01  -3.584953e-03  6.045071e-01  2.761859e-02  8.847608e-01  -5.756610e-02  8.612287e-02  9.883808e-02  -7.395217e-01  -4.824986e-01  -7.952656e-01  -3.109256e-01  -1.678231e-01  -1.082961e-01  -1.740381e-01  -6.221268e-01  -4.001700e-01  4.955547e-01  4.205810e-01  -1.097912e+00  2.535346e-02  1.730915e-01  1.451992e-01  1.922323e-01  9.844211e-02  -2.837542e-01  -4.851944e-02  -2.073462e-01  -1.627209e-01  -3.902301e-01  1.670758e-01  3.058218e-01  -1.098060e-02  1.069954e-02  -2.436630e-01  -6.746348e-01  -5.032169e-01  -2.099904e-01  -3.129087e-02  -2.082950e-01  -1.019119e-01  1.164709e-01  -2.072466e-01  6.256737e-01  2.515644e-01  -1.585959e+00  -7.968267e-01  -5.275733e-02  -2.806544e-01  -2.354474e-01  4.635008e-01  8.099720e-02  7.038158e-01  -1.821635e-01  -4.519624e-02  1.821296e-01  1.302459e-02  8.153979e-02  3.769659e-01  1.363800e-01  -1.668964e-01  -4.904157e-01  -3.556448e-01  3.189133e-01  -3.571141e-02  -1.016656e+00  -6.308682e-01  -1.850817e-02  4.653476e-01  -3.945815e-01  -5.063172e-01  2.131679e-01  -2.212926e-01  -3.031020e-01  -6.246784e-01  -5.758860e-01  -6.975183e-01  2.370383e-01  4.677929e-01  -2.734095e-01  3.276166e-01  -2.035089e+00  -1.159235e-01  -2.980572e-01  -1.257281e-01  -8.864296e-01  3.885717e-01  -1.992728e+00  -5.500925e-01  -1.146678e+00  -4.465006e-01  5.493838e-01  3.493069e-02  8.164309e-02  5.397550e-02  -5.129221e-01  -4.081606e-02  6.357644e-01  -8.627920e-01  -3.853118e-01  4.726113e-01  4.219961e-01  1.395347e-01  4.766512e-01  4.416417e-01  -2.439612e-01  -2.254750e-02  -1.311897e-01  4.129586e-01  3.732497e-01  -2.775734e-01  4.420960e-01  3.789404e-01  2.039520e-02  1.613335e-01  -1.670770e-01  -1.157442e-01  2.630572e-01  -7.042399e-01  1.465030e-01  4.689524e-01  2.073438e-01  6.357676e-01  1.678442e-01  1.090922e-01  6.228045e-01  7.954783e-01  1.008102e-01  -1.653045e-01  -2.350888e-01  4.804463e-01  -2.080636e-01  4.934859e-01  1.484342e-01  3.433631e-01  2.903930e-01  7.431279e-01  -7.138730e-01  -1.199761e-01  1.069472e+00  -1.124497e-01  3.164923e-01  2.270118e-01  -2.812183e-01  1.193537e-01  2.487126e-01  2.532586e-01  -1.476589e-01  1.253924e-01  -1.132437e-01  1.917442e-01  1.152699e-01  3.233501e-01  -5.549961e-01  9.710494e-02  3.368964e-01  5.371457e-01  4.011696e-01  -2.974825e-01  3.677051e-01  3.114844e-01  4.772503e-04  2.782345e-01  -5.299404e-01  -3.394743e-01  1.445171e+00  9.369814e-01  1.331723e-01  3.872828e-01  3.978782e-01  -1.190446e-01  4.813370e-01  1.148161e-01  -6.899750e-01  7.861666e-01  -1.024118e+00  6.075536e-02  -5.772119e-01  -8.022424e-02  1.231373e+00  6.477831e-01  1.154173e-01  -4.712417e-01  2.118626e+00  -3.773624e-01  2.538687e-01  -4.796505e-02  -4.559307e-01  1.418801e+00  -1.609015e+00  4.593620e-01  3.731598e-01  5.337462e-01  1.231981e-01  2.710699e-01  2.525144e-01  9.054587e-01  -8.052955e-02  -2.518664e-01  -3.279842e-01  -4.180412e-03  2.538643e-01  -7.318657e-01  -1.678511e-01  3.316996e-01  3.073059e-01  4.148647e-01  -5.457115e-02  1.378593e-01  6.874468e-01  -6.182424e-01  -5.623668e-02  -9.315529e-01  -3.172908e-01  3.748658e-02  -4.361168e-01  -5.225582e-01  -6.767089e-01  1.433410e+00  -6.063839e-01  -5.090457e-02  1.150225e-01  -2.713059e-01  -1.619808e-01  -1.873532e-01  -4.779728e-01  -4.351567e-01  -2.454529e-01  -1.764662e-01  1.704595e-01  1.396575e-01  -1.151411e+00  9.620386e-02  2.120892e-01  5.411888e-01  -1.241534e+00  1.609262e-02  -3.834487e-01  6.395777e-01  -2.481867e-01  -3.608117e-01  -4.289475e-02  -8.920671e-03  -5.375137e-01  -8.014743e-01  3.452291e-01  5.077401e-01  1.420989e+00  -1.237839e-02  1.408456e-01  1.649893e-01  -1.546181e-01  9.480242e-03  -1.456030e-01  -3.486407e-01  4.371769e-01  2.521129e-03  5.672557e-01  1.091045e-01  -7.821359e-01  3.818804e-01  -6.943776e-02  9.137437e-02  4.000846e-01  -2.038434e-01  1.223940e-01  -2.268507e-01  9.222697e-02  -1.039083e-01  -1.896030e-01  -1.645674e-01  -1.844223e-01  1.445194e-01  -8.002102e-02  -2.516436e-01  -7.727044e-01  -5.958322e-01  3.826985e-02  1.687209e-01  9.975497e-02  -1.727259e-01  1.739259e-01  -3.980044e-01  5.365020e-01  -3.457712e-02  -1.120905e+00  -7.920764e-01  -2.084482e-01  -2.489046e-01  1.423687e-01  1.907924e-01  -3.173465e-01  -4.206352e-01  -2.960584e-01  -9.156609e-02  6.546305e-01  3.666761e-01  3.139796e-01  -2.905605e-01  -7.176834e-01  -1.428770e+00  -3.584872e-01  -7.234648e-01  -1.638715e-01  2.855729e-01  -5.944154e-01  -7.546816e-01  -8.916442e-01  -5.477228e-01  8.622686e-01  1.150488e-01  -1.242369e-01  -6.138220e-02  -3.058649e-01  -3.614370e-01  2.615636e-01  -3.158318e-01  1.838456e-01  5.641981e-01  2.330948e-01  3.262679e-02  6.953751e-02  2.914982e-01  -4.275155e-01  1.851228e-02  -4.769242e-01  6.689442e-02  -9.599715e-01  -3.849030e-01  -7.539146e-02  -5.387746e-01  6.548504e-01  1.273174e-01  2.896472e-01  -7.672452e-01  -4.391180e-02  3.328110e-01  1.417467e-01  -3.095670e-02  -6.008061e-01  9.237763e-01  1.397562e-01  6.081897e-01  4.079774e-01  5.040296e-01  8.200365e-03  7.788209e-01  3.844029e-01  8.176494e-02  -3.919082e-01  7.627476e-01  -2.299943e-01  3.443057e-01  3.473796e-02  4.479687e-01  1.250081e-01  -3.592956e-01  2.637788e-02  1.212869e-01  -4.541822e-01  2.849861e-01  -3.137741e-01  3.025386e-01  -2.495871e-01  -2.094654e-01  -2.047629e-01  -1.032056e+00  3.810302e-01  1.781568e-01  2.678343e-01  -5.505373e-01  2.644256e-01  -4.882586e-01  1.045898e-01  -3.903214e-01  -8.485166e-01  -1.111409e+00  6.169698e-01  1.635803e-01  3.085366e-01  7.914029e-01  1.831342e-01  1.363004e-01  -7.528912e-02  -1.292776e-02  4.673521e-01  -5.921886e-01  -2.948418e-01  -1.154057e-01  7.383967e-02  3.184940e-01  1.766479e-01  -1.947862e-01  6.532048e-01  6.285766e-01  -8.011668e-02  -9.070042e-01  -7.131068e-01  5.019941e-01  -3.797596e-01  -4.504720e-02  6.239077e-01  -4.905195e-02  2.409468e-01  2.499052e-01  9.300816e-02  -2.058168e-01  -3.316594e-01  5.523054e-02  5.824576e-01  -8.705751e-01  3.379813e-01  -7.696828e-02  -2.746995e-01  -1.240944e-01  -6.919658e-01  -1.546131e-01  -1.145650e-03  1.103658e-01  4.923431e-01  -5.732916e-02  2.008844e-01  1.112948e-01  5.800415e-01  -8.367500e-02  3.870665e-01  5.834625e-01  -2.993172e-01  4.528940e-01  -3.768220e-01  4.753588e-01  -6.399181e-02  6.116583e-01  -5.686235e-02  3.540822e-01  1.096691e+00  9.291559e-01  -1.891590e-01  -8.452097e-02  7.369847e-01  -5.145536e-01  3.400314e-01  -6.553499e-02  2.725079e-01  -3.457078e-01  5.486053e-01  -8.716408e-01  7.188465e-01  -8.644710e-01  5.653270e-01  -3.428595e-01  9.151632e-02  2.361295e-01  -4.194152e-01  -4.335392e-01  8.620552e-01  4.260275e-01  -4.247786e-01  4.364842e-01  1.060119e-01  3.810972e-01  -4.363532e-02  2.258674e-01  -3.888029e-01  -2.868287e-02  1.150635e+00  7.647594e-01  -6.069216e-01  -1.670821e-01  -1.317012e-01  -7.905216e-01  5.999586e-02  1.523516e-02  1.823848e-01  -1.690888e-01  -3.715383e-01  4.239993e-01  -2.565291e-01  -6.344355e-01  2.723031e-01  1.391513e-01  -1.748150e-01  7.952580e-01  2.165831e-01  -3.438521e-01  1.037179e+00  7.601712e-01  1.386713e-01  -3.038379e-01  -4.278378e-01  2.661411e-01  -4.386250e-01  -2.438056e-01  -1.139596e-01  -8.124653e-02  -1.474203e-01  3.407693e-02  7.405544e-01  2.737454e-01  -2.587173e-01  1.430199e-01  2.743556e+00  7.932653e-02  5.097856e-01  1.252697e-01  3.384790e-01  1.533875e-02  2.410768e+00  -2.855677e-01  1.202362e+00  4.487717e-01  1.346506e-01  -1.735951e-01  -8.484509e-01  -6.095105e-02  -7.459450e-02  -8.737950e-01  -4.301833e-01  7.917564e-01  9.760476e-01  -2.698791e-01  2.530349e-01  -1.380382e-02  8.141448e-01  4.574226e-01  -1.103894e+00  -1.085692e-01  -7.383754e-01  -3.187426e-01  4.680130e-01  -3.950222e-01  -7.055578e-01  -8.303680e-01  -2.484734e-01  -2.036453e-01  -4.257894e-01  -1.718163e-01  -3.098333e-01  5.539533e-02  -2.900435e-01  -1.063355e-01  -4.044282e-01  -9.605903e-02  2.884606e+00  3.215385e-01  2.203393e-01  3.510550e-01  6.120694e-01  -2.804374e+00  3.217813e-01  1.025397e+00  -3.149567e-01  -2.417517e-02  -7.145959e-01  -7.148565e-01  7.791750e-01  4.414848e-01  -4.176380e-01  -2.863298e-01  7.609931e-01  -1.844077e-01  -3.244139e-01  -5.506265e-02  9.687930e-02  -1.862349e-01  -3.541761e-01  -5.934797e-02  -6.423119e-02  -1.264353e-01  1.587453e-01  3.748532e-01  -1.861566e-01  -1.584498e-01  3.935898e-01  -9.501415e-02  6.286279e-01  1.047874e+00  3.919341e-01  -3.843866e-02  -2.952684e-01  9.496735e-02  -1.847143e-01  1.989467e-01  -5.784150e-01  -4.771704e-01  1.161506e+00  4.577752e-01  4.100652e-01  4.793683e-01  -9.811661e-01  1.187692e-01  9.592275e-02  1.286164e-01  2.817293e-01  -9.205415e-03  2.111219e-01  -1.208945e-01  -9.100558e-02  -6.816442e-02  -1.687911e-01  -3.101354e-03  -3.502687e-03  6.074195e-02  -4.741839e-02  -1.681585e-01  -7.389076e-01  -6.652878e-01  -8.047729e-02  -6.084973e-02  -2.450373e-01  1.517415e-02  2.607058e-01  -1.558673e-01  6.827058e-01  2.274181e-01  -1.486077e+00  -7.893954e-01  -3.353547e-01  -3.367051e-01  4.739699e-01  -3.004386e-01  -7.049815e-01  -4.003926e-01  -5.373181e-01  7.568993e-03  -3.892270e-01  -3.628893e-01  -5.940810e-01  1.111825e-01  -6.183750e-01  7.099614e-02  -8.534016e-02  2.207246e-02  5.862931e-01  -2.547727e-01  5.043536e-01  8.971131e-01  2.936215e-01  -8.093702e-01  -3.292425e-01  4.326979e-01  -2.748955e-02  1.870746e-01  -6.229564e-01  -3.342327e-01  7.557980e-01  4.891295e-01  -5.274034e-01  -2.355597e-01  1.157226e+00  -4.466025e-02  3.758279e-03  -2.359419e-01  -2.715341e-01  -1.106163e-01  -6.635614e-02  -1.984011e-01  7.152630e-02  -4.768265e-02  3.405942e-01  -1.376098e-01  2.030337e-04  2.237638e-02  -1.340243e-02  7.383250e-02  5.385506e-01  5.280024e-01  -2.954471e-02  1.356783e-02  1.466484e-01  1.492121e-01  -1.883945e-01  1.718956e-01  -5.974199e-01  -3.371373e-01  1.570450e+00  6.652753e-01  4.517702e-01  1.186264e-01  -1.031090e+00  5.385174e-01  1.673342e-01  -4.550406e-01  6.124301e-02  5.756147e-02  1.093938e-02  5.400616e-02  2.270223e-02  -1.405076e-01  3.677359e-01  1.760085e-01  -1.320933e-01  -1.637141e-04  1.330907e+00  -1.248468e-01  -3.715828e-01  -4.570253e-01  1.338352e-01  8.269024e-01  -5.891575e-01  -4.735761e-01  1.190271e-01  -5.675402e-01  1.756830e-01  -7.807032e-02  -1.091657e+00  -7.867611e-01  -3.051435e-01  9.875433e-02  3.407472e-01  -5.931470e-01  -5.130495e-02  -6.082509e-01  -2.867716e-01  -4.393776e-03  -2.931337e-01  4.706593e-01  -2.394084e-01  1.672270e-01  2.758514e-01  7.693603e-02  1.384913e-01  -9.490477e-02  -3.797577e-03  2.979607e-02  8.495228e-01  9.255353e-01  -5.316517e-01  2.622021e-01  -2.000559e-01  4.609278e-01  -3.578848e-01  2.086720e-01  -2.430051e-01  3.433125e-01  7.821839e-01  9.347165e-01  
      </Weights>
      <Biases Rows="128" Columns="1">
        7.453868e-01  -1.943612e+00  5.333129e-01  1.448683e+00  -1.497305e+00  1.077013e+00  1.740367e+00  6.215809e-01  -8.419034e-01  8.614910e-01  -1.834676e+00  -1.628134e+00  1.924989e+00  -1.723066e+00  -1.367836e+00  4.719398e-01  1.123489e+00  -4.183018e-01  -9.667918e-01  -3.478794e-01  1.867225e+00  -1.569299e+00  -8.081263e-01  -1.076252e+00  -2.414910e-01  -9.891077e-01  -1.360701e+00  1.215022e+00  1.243444e+00  -1.144521e+00  1.685347e+00  1.903921e+00  -8.004776e-01  -1.563327e+00  1.478284e+00  -1.232866e+00  1.131905e+00  1.280773e+00  1.460878e+00  -1.980579e+00  -1.672048e+00  -6.166981e-01  1.495017e+00  -1.183666e+00  -3.509826e-01  -1.067303e+00  -8.967509e-01  -1.061753e+00  -4.864452e-01  1.321980e+00  1.426936e+00  -1.915581e+00  -1.167531e+00  -7.957289e-01  4.952338e-01  -1.007282e+00  -1.219081e+00  1.620251e+00  7.051363e-03  -9.603413e-01  -1.445350e+00  1.289490e+00  6.336860e-01  1.333390e+00  1.017191e+00  4.929913e-01  -1.569111e-01  1.999640e+00  -1.343271e+00  -1.288187e+00  5.851504e-01  -8.744619e-01  1.898022e+00  1.533501e+00  1.647444e+00  8.837006e-01  -1.856807e+00  -1.044032e+00  -1.897352e-01  -6.421399e-01  1.329010e+00  1.786108e+00  2.538558e-01  8.367722e-01  1.307775e+00  -9.113266e-01  1.583132e+00  1.636897e+00  -2.363981e-01  1.091173e+00  -1.114814e+00  -1.723296e-01  -1.023803e+00  8.621573e-01  -1.975584e+00  -1.786741e+00  -2.074252e+00  -6.643061e-01  1.565149e+00  -1.482610e+00  -1.972721e-01  1.064642e+00  4.059047e-01  -5.882955e-01  -1.979317e+00  -2.897710e-01  -1.178161e+00  5.321331e-01  1.651245e+00  4.514254e-01  -2.692565e-01  6.073159e-01  -1.579461e+00  3.042537e-01  -2.028018e-01  -1.159776e+00  -8.181707e-01  1.266357e+00  1.580706e+00  5.183042e-01  -1.506440e+00  1.600170e+00  1.588818e+00  -1.775035e+00  1.372545e+00  1.806058e+00  -1.414517e+00  1.234934e+00  
      </Biases>
    </DenseLayer>
    <DenseLayer Width="128" ActivationFunction="3">
      <Weights Rows="128" Columns="128">
        -7.828623e-02  7.561754e-01  3.975278e-01  -4.267220e-01  -5.613503e-01  3.531277e-02  4.108398e-02  1.215625e-01  -4.530345e-01  1.593555e-01  -6.236274e-02  -3.395174e-01  -1.089001e+00  7.550339e-01  -8.035342e-01  -1.095265e-02  -2.264798e-01  2.918502e-01  -2.682405e-01  -2.524152e-01  -6.457262e-01  -7.061156e-01  1.101287e+00  3.748491e-01  2.937671e-01  2.066522e-01  1.425573e+00  1.280782e+00  -7.475276e-01  4.207591e-01  -1.255618e-01  -7.430372e-01  -3.944475e-01  -4.140646e-01  -3.065516e-01  6.856140e-01  -9.935656e-01  -2.829043e-01  2.770188e-01  1.226231e-01  1.296736e+00  -1.015079e-01  6.908717e-01  -3.551964e-01  1.066132e+00  -1.895764e-01  4.088163e-01  7.448148e-01  -1.420534e-01  -1.355216e+00  -3.767111e-01  1.321018e+00  5.403754e-01  -1.438134e-01  2.791644e-01  -5.458145e-01  3.045442e-01  -2.614829e-01  -7.780819e-01  -4.336732e-01  8.202800e-01  1.184752e-01  -6.491435e-01  -6.749715e-01  5.166406e-02  -7.838635e-01  -4.778288e-01  -1.504671e+00  1.064164e+00  6.816599e-01  -1.106799e+00  -7.374645e-01  -7.371901e-02  -3.552332e-01  -1.856987e-01  -3.664855e-01  6.746683e-01  2.683974e-01  1.349647e-01  3.161712e-01  5.205804e-01  -6.755142e-01  9.897903e-02  -6.820520e-03  2.132925e-01  2.826538e-02  2.979984e-01  -7.274520e-02  -3.371532e-01  2.818338e-01  1.711197e+00  -3.890517e-01  -3.032956e-02  -2.369269e-01  1.289764e+00  -7.761858e-02  1.200063e+00  5.423128e-01  1.120610e-01  -4.258191e-01  -9.724049e-01  -1.155660e+00  -5.935953e-01  2.802058e-01  3.635909e-01  -2.304082e-01  3.922947e-01  -3.062128e-02  -3.352453e-01  -1.304126e+00  -2.742444e-01  -6.371160e-01  4.935600e-01  2.662689e-01  2.603299e-01  -3.471971e-01  -7.973784e-01  -8.456559e-01  -3.543824e-01  1.879296e-02  9.433987e-01  -5.254470e-01  -7.939841e-01  4.144031e-01  -8.589971e-02  -6.754165e-01  9.394412e-01  -1.367582e-01  -1.266617e-01  1.517302e+00  -3.402510e-01  -6.383640e-01  1.357748e-01  -6.760831e-01  -6.330277e-01  -3.982908e-01  1.304217e-01  -9.661692e-02  5.283442e-01  5.157753e-01  -9.041032e-01  8.773590e-01  3.509059e-01  2.755841e-01  -3.722616e-01  -4.877649e-01  3.811059e-01  -4.225684e-01  -2.841110e-01  4.613910e-01  -1.023058e-01  4.307890e-01  2.567957e-02  -3.537959e-01  8.177879e-02  -8.184634e-01  3.836496e-01  -2.046629e-01  -2.359383e-01  -2.416553e-01  -9.360363e-01  1.320628e-01  -2.840960e-01  -6.094223e-01  -2.128230e-01  -2.857621e-01  3.290218e-02  2.296804e-01  2.915666e-01  2.127604e-01  -3.838038e-02  4.100707e-01  -1.542519e-01  5.930424e-01  -4.719385e-02  5.733870e-01  -3.521338e-01  -7.708783e-02  -1.480337e-01  3.038405e-01  5.571403e-01  -5.396816e-01  2.039311e-01  3.860079e-01  -2.010454e-01  3.847632e-01  -1.608768e-02  -3.171373e-01  5.229528e-01  -2.269102e-01  -2.126296e-01  1.165594e-01  -8.002114e-01  -4.288966e-01  7.988988e-01  -3.717136e-01  4.171731e-01  -1.096249e-01  -3.402094e-01  7.047870e-01  -1.476986e+00  -4.781785e-01  1.110094e-01  4.723157e-01  2.097601e-01  7.167892e-01  -5.392135e-01  -3.308788e-01  -5.348158e-01  -5.734432e-01  -3.572898e-02  -1.756389e-01  1.941988e-01  -4.963884e-01  2.127572e-01  -5.773422e-01  4.672114e-01  -1.696130e-01  -1.434202e-02  -8.882864e-01  -1.079548e-01  3.018074e-02  9.374276e-01  4.011867e-01  1.240283e+00  -2.361227e-01  -6.821460e-01  -7.248159e-02  -4.840104e-01  -6.589147e-01  -9.296969e-01  7.647609e-02  1.240677e+00  -4.195261e-01  1.369165e+00  6.490952e-01  -3.513647e-01  -2.233641e-01  4.399790e-02  -7.999294e-01  6.079318e-01  6.097732e-02  1.385797e-01  -2.108951e-01  -6.924798e-01  1.534109e-01  -9.701959e-01  8.556783e-01  5.722182e-01  -6.316205e-01  -2.470722e-01  9.388707e-01  -1.725232e-01  -4.154570e-01  -1.060753e-01  2.480671e-01  4.315199e-01  1.374617e+00  7.476757e-01  5.301278e-01  1.930628e-01  5.153682e-01  -7.457935e-01  -4.931635e-01  -5.705204e-01  -7.971753e-01  6.612232e-01  7.151087e-02  -6.375059e-01  1.032139e+00  -3.849207e-01  4.268321e-01  -4.142731e-01  -4.765624e-01  4.244159e-01  -5.060985e-02  -9.242155e-01  4.324273e-02  9.983577e-03  -3.229993e-01  2.380015e-01  6.895772e-02  1.032497e+00  -4.088477e-01  -1.131824e+00  3.641535e-02  -8.396867e-01  -9.984899e-01  6.011897e-01  6.771771e-01  -5.931690e-01  2.306157e-01  1.021117e-01  -1.408988e-01  2.834298e-02  1.022999e+00  9.611075e-01  -4.067173e-01  3.577985e-01  6.031479e-01  2.699762e-01  2.655879e-01  4.546633e-01  1.165537e+00  1.310098e-01  -9.222911e-01  -7.221012e-01  1.553453e+00  8.411304e-01  4.288482e-01  -2.059323e-01  -2.711766e-01  1.354882e-01  2.630715e-01  1.125653e-01  6.112852e-01  5.306360e-01  -5.873823e-01  -4.334660e-02  -5.497279e-01  -9.365620e-02  -3.761595e-01  -1.004983e-01  -7.171732e-01  7.289025e-01  4.596550e-01  -1.621650e-03  -3.460380e-01  -1.124173e+00  -2.329311e-02  -6.403021e-01  -3.095510e-02  4.197170e-01  2.753571e-02  -1.201698e-02  5.199978e-01  -1.090836e-01  -1.027180e+00  1.219901e+00  -6.138675e-01  -2.509113e-01  6.372619e-02  2.809955e-02  2.160769e-01  -8.752888e-01  -4.817952e-01  7.820601e-01  4.785830e-01  -4.029723e-01  -4.776057e-01  1.495632e+00  1.154241e+00  1.695304e+00  1.051570e+00  -1.492486e+00  3.136002e-01  -8.728826e-02  -4.339833e-01  -6.775769e-01  4.595541e-01  7.765002e-01  2.434700e-01  1.403139e+00  9.924935e-02  -2.539014e-01  -8.179000e-01  -6.600270e-01  7.514700e-02  7.109917e-01  -6.733880e-01  6.974793e-01  2.817684e-01  -2.161987e-01  1.445414e-01  -5.236153e-01  -4.003555e-01  3.425580e-01  -1.178553e+00  -9.585532e-01  8.138726e-01  -3.377823e-01  -4.116144e-01  5.048935e-01  -6.769767e-01  1.172003e-01  -2.241610e-01  -2.434761e-01  -6.006693e-01  -5.134054e-01  1.385427e-01  5.416188e-01  5.794675e-02  -9.866947e-02  -5.165829e-01  -1.321605e+00  3.765117e-01  1.257466e+00  -1.034673e+00  6.507674e-01  6.144380e-02  3.376927e-01  -8.248696e-02  -2.280132e-01  -9.799613e-01  4.896615e-01  -4.006376e-01  -5.716755e-01  -2.063878e-01  -2.855587e-01  -5.479522e-01  -1.098038e+00  3.734276e-01  4.687416e-01  2.265930e-02  8.656867e-01  7.744769e-01  -1.555785e-01  -4.665360e-01  6.437084e-01  3.237692e-01  -5.874149e-01  -2.779223e-02  1.326271e+00  -1.214318e+00  -7.594846e-01  -4.547812e-01  -4.292568e-01  2.671496e-01  8.183063e-01  -5.750452e-02  -1.117235e+00  -4.327872e-01  1.168555e-01  7.108343e-01  2.036725e-01  -5.120266e-01  -1.134346e+00  -5.709032e-01  5.784490e-01  2.231659e-01  -1.721988e+00  5.464047e-01  1.345632e-01  -7.586479e-01  9.898813e-01  2.415100e-01  -3.818552e-01  1.653135e+00  -5.070304e-02  -6.941855e-01  1.233314e-01  5.547425e-01  -5.815889e-01  -1.525064e+00  -6.196048e-01  -3.133430e-01  6.116881e-01  3.056398e-01  1.372519e+00  -2.000870e-01  -1.091093e+00  -4.305660e-01  -6.638005e-01  -4.064735e-02  4.466379e-01  4.745532e-01  -5.635161e-01  2.160368e-02  4.561580e-01  3.649099e-01  7.617028e-01  2.827449e-02  1.549824e-01  8.782657e-01  -4.194441e-01  -5.381718e-01  -4.967071e-01  8.313998e-01  -7.257390e-01  -1.944900e+00  -8.674775e-01  -9.023550e-01  -2.936964e-01  -9.222760e-01  -5.395123e-01  -3.242483e-01  1.397188e-02  6.062972e-01  -7.207347e-01  -4.123547e-01  -3.791576e-01  7.920839e-01  9.984861e-01  9.553476e-01  2.166458e-01  -1.206127e+00  -6.899388e-01  4.736590e-02  -2.712134e-01  -4.184058e-01  -6.417574e-01  8.148012e-01  4.234173e-01  5.594929e-01  -3.388524e-01  6.899116e-01  -1.292466e-01  5.693850e-01  -2.701218e-01  4.703636e-01  -4.842574e-01  -1.259857e-01  1.905863e-01  -6.866848e-02  -1.650891e-02  -6.309436e-04  -9.850951e-01  -3.953648e-01  7.308773e-01  1.916212e-01  -1.054458e-01  2.077457e-01  -2.101247e-01  -9.488282e-01  5.851941e-01  6.482928e-02  -1.024214e-01  8.916118e-01  -6.576096e-01  -4.438187e-01  3.797233e-01  5.755785e-01  1.662832e-02  -9.913703e-01  -7.050737e-01  -7.574636e-01  -7.605662e-01  -3.920383e-01  -4.454992e-01  -3.873539e-01  5.532685e-02  -5.772770e-01  -3.451607e-01  1.337511e-01  3.256036e-01  -2.494948e-01  1.670223e-01  -9.251040e-01  -8.579795e-01  1.037032e+00  3.116625e-01  -7.478723e-01  -6.678994e-01  2.869518e-01  -1.112846e-01  -1.240840e+00  -2.204616e-01  2.459407e-02  -2.348400e-01  -9.880606e-02  -2.004961e-01  2.174039e-02  5.761644e-01  -7.957854e-01  -1.525632e-01  2.986939e-02  7.609396e-02  -1.161791e+00  3.676657e-01  -6.095551e-01  -4.316982e-01  4.710844e-01  2.116098e-01  3.221712e-01  1.551306e-01  8.105423e-01  -1.544748e-01  3.270350e-01  -8.544022e-01  3.110358e-01  -6.015508e-01  -1.051607e+00  2.811303e-01  1.361169e-01  5.888146e-01  7.303016e-02  2.088184e-01  5.132853e-01  -2.846575e-01  -7.093719e-01  4.130696e-01  -8.661473e-02  2.946281e-01  3.360089e-01  -3.318405e-02  1.995165e-01  -2.478570e-01  2.191589e-02  2.129952e-01  -2.198094e-01  2.369038e-01  5.904667e-02  -7.390778e-01  3.029674e-01  -7.676140e-01  -5.504222e-01  -6.129183e-01  -1.027681e+00  4.896134e-01  4.384163e-01  4.272236e-01  -1.374509e+00  -4.096918e-01  2.799141e-01  -8.108410e-01  9.400753e-02  -4.822641e-01  -1.890343e-01  -4.905041e-01  4.172725e-02  1.120035e-01  3.463573e-01  8.951247e-01  2.293215e-01  -5.340694e-01  -5.413818e-01  -5.974953e-03  -1.079053e+00  -1.389015e-01  2.653705e-01  -2.661306e-01  -5.996548e-02  -6.855947e-01  6.237623e-01  9.299465e-01  -9.472216e-01  1.348776e+00  5.999392e-01  -5.725048e-01  -4.798769e-02  -4.098208e-01  -2.562563e-01  -3.893043e-01  2.908956e-01  5.028360e-01  -2.061799e-01  -5.841990e-02  -8.624767e-01  -7.217533e-02  -5.344015e-01  5.390470e-01  -6.758947e-01  9.079812e-02  -3.259054e-01  -1.737780e-01  -1.369572e-01  3.617248e-02  -3.301094e-01  2.409651e-01  7.816968e-01  6.786435e-01  2.591692e-01  -1.378915e-01  1.277743e-01  -1.783239e-01  2.829945e-01  -9.708190e-02  1.823477e-02  -1.117505e+00  -3.185710e-01  -9.281204e-01  9.822050e-01  4.484214e-01  5.625388e-02  3.666152e-02  -2.880404e-01  -1.036386e+00  8.982310e-02  -6.087222e-01  3.785337e-01  3.772628e-01  1.112245e+00  1.034284e-01  6.469999e-02  2.272649e-01  1.161790e+00  9.178305e-03  -3.222704e-01  -4.554352e-01  4.682299e-01  -4.909495e-01  -5.605830e-01  1.000711e+00  -3.093328e-01  3.303124e-01  -3.113607e-01  -1.335699e-01  1.663664e-01  2.654913e-02  7.113780e-01  4.783118e-01  -1.074588e+00  3.050902e-01  3.768703e-01  -8.449536e-01  2.594926e-01  -2.747762e-02  -1.725486e-01  -1.955021e-01  -3.916303e-01  3.503112e-01  -1.267270e-01  2.418937e-01  -2.277154e-01  -1.458758e-01  2.060454e-01  2.402426e-01  -6.366352e-01  2.440531e-01  -3.497557e-01  -4.013382e-01  -1.680938e-01  -4.835483e-01  3.992265e-01  -8.887905e-01  4.999445e-01  -1.370928e-01  5.622026e-01  4.017868e-01  -9.692792e-01  -1.504747e-01  -8.314588e-02  4.765987e-01  -9.157013e-01  -1.119301e-01  5.220176e-02  -9.327341e-01  -1.101118e-01  3.636705e-01  8.253380e-02  1.283785e-01  -3.652647e-01  4.168260e-01  -5.327104e-01  -3.443061e-01  2.419454e-01  -1.203258e-01  8.807805e-01  -1.104331e+00  2.829780e-01  8.989221e-01  -1.705318e-01  1.045159e-01  -2.584609e-01  2.780252e-01  -1.201446e-01  7.777882e-02  2.948853e-01  1.058808e+00  -3.485399e-01  -5.428864e-01  1.010799e-01  6.835875e-01  1.892400e-01  -9.593962e-01  -1.475913e-01  1.744580e+00  3.430013e-02  5.239141e-01  3.775672e-02  4.833788e-01  8.608007e-02  -7.860092e-01  -1.503420e-01  3.707453e-01  -7.143795e-01  3.694375e-01  5.613298e-01  -4.513102e-01  -4.593929e-01  -8.335396e-02  -3.731348e-01  5.992541e-01  8.598533e-02  1.247121e+00  -1.390106e+00  -2.202494e-01  -3.564726e-01  1.220023e+00  1.070911e-02  -7.711281e-01  1.369356e+00  2.915693e-02  -2.971989e-01  2.691191e-03  6.049379e-01  4.753837e-01  -7.882611e-02  1.487169e+00  4.491344e-01  -4.891655e-01  -6.064929e-01  -2.343950e-01  -8.030187e-01  -9.258024e-02  1.223156e-01  8.211543e-01  -5.610769e-01  -1.139796e+00  4.184404e-02  9.209527e-01  -4.507489e-01  -5.989783e-02  -2.453424e-01  -1.034573e+00  -4.511255e-02  -3.439496e-01  -1.959346e-01  4.339203e-01  -4.214970e-01  -1.345840e+00  -5.286375e-01  1.550619e+00  -1.510956e-02  -2.494863e-01  7.013611e-01  -1.493785e-01  3.074363e-01  2.325300e-01  9.703202e-01  -1.818061e-01  1.084005e+00  -3.880048e-01  3.111264e-02  6.933196e-01  1.250513e+00  2.242291e-01  -1.074980e+00  4.816483e-01  6.905031e-01  7.476598e-01  -3.169037e-01  2.174982e-01  1.240450e-01  -1.520767e+00  1.522995e-01  -5.018076e-01  4.778567e-01  -3.195435e-01  3.135494e-01  -9.414717e-02  2.436766e-01  -6.712835e-01  4.804037e-01  6.306715e-01  6.408851e-01  2.004617e-01  3.853896e-01  -1.310965e+00  -1.037101e+00  -8.589937e-01  2.055382e-01  -9.721479e-01  -8.076242e-01  -1.183228e+00  -1.229674e+00  4.181268e-01  -1.477620e+00  -1.892232e-01  2.634331e-01  -8.746799e-02  -7.188458e-01  -4.373558e-01  2.694233e-01  -1.125492e+00  9.858635e-01  6.354253e-01  -6.003355e-01  -2.823029e-01  -1.118866e-01  -3.651972e-01  4.005753e-01  8.639960e-01  -1.304569e+00  5.280185e-01  1.792660e+00  9.183103e-02  1.147168e+00  4.671482e-02  -6.510840e-02  1.007230e-01  -2.268835e-01  8.991256e-01  1.046782e+00  -1.684204e-01  5.831885e-01  5.622020e-02  -4.360772e-01  9.560630e-02  2.225938e-01  -8.360803e-02  1.397036e+00  9.153371e-02  1.291398e-01  4.855004e-02  3.842203e-01  -1.948774e+00  -6.394951e-01  7.016705e-01  -3.106444e-01  2.400859e-01  4.446207e-01  5.192823e-02  7.218438e-01  -5.645859e-01  8.112194e-03  1.147972e+00  -1.106850e+00  1.090970e+00  1.745577e-02  -1.941414e-01  -3.765295e-01  3.959858e-01  -4.498387e-01  6.574644e-01  -6.790026e-01  1.508466e+00  5.033622e-01  7.581337e-01  -1.762998e-01  1.104011e+00  7.796352e-02  1.187551e+00  1.569052e-02  2.378848e-01  -1.013590e+00  -1.949162e-01  -8.583639e-01  3.349584e-01  -1.365985e-01  4.461929e-01  -2.472562e-01  5.445079e-01  9.247645e-01  -3.003706e-01  -4.024991e-01  6.206684e-01  -2.401190e-01  6.131577e-01  6.062673e-01  -4.543257e-01  -1.134622e-01  7.416576e-02  8.021317e-02  2.105617e-01  5.568697e-02  -2.061857e-01  6.681253e-01  3.331611e-01  -5.716923e-01  7.219329e-01  -1.749296e-02  -1.361150e-01  9.633862e-01  -1.121710e+00  1.798259e-01  -3.049676e-01  -1.108379e+00  1.040919e+00  2.379878e-01  -5.269831e-02  1.636577e-01  -4.005590e-01  2.299373e-01  -2.350633e-01  4.728340e-01  9.250026e-01  1.555137e-01  5.317793e-01  -1.501220e-01  5.634019e-01  -6.260298e-02  5.128945e-01  -5.742834e-02  4.786334e-01  8.977326e-01  7.319228e-01  3.448242e-01  -1.714153e-01  1.320677e+00  -1.339879e+00  -6.490860e-01  -6.397323e-01  1.134745e+00  2.990398e-01  -2.507128e-01  5.236961e-02  3.073847e-01  6.472589e-01  3.131135e-01  -9.248782e-01  2.600815e-01  -2.198628e-01  -6.667362e-01  1.499399e+00  -3.875397e-01  -4.933552e-01  9.150931e-01  -4.209646e-01  6.903367e-01  -6.301335e-01  1.630344e-01  -6.866802e-01  2.317616e-01  -4.817508e-01  1.062177e-01  -3.971663e-01  6.790211e-01  3.365725e-01  -7.313410e-01  2.687930e-01  1.113865e+00  -2.086523e+00  -4.286296e-01  -4.105316e-01  -9.610388e-02  -8.842406e-02  -3.984637e-01  6.050981e-01  3.374568e-01  -4.517494e-02  -6.817263e-03  -8.043622e-01  -1.885347e-02  9.488706e-01  6.142671e-01  -1.242003e+00  4.290466e-01  -1.024656e+00  -4.242350e-01  -4.769553e-01  2.188402e-01  -1.592074e+00  -4.303877e-01  -2.752112e-01  -1.282009e-02  1.467344e+00  -5.059010e-01  -9.476361e-02  -2.812835e-02  1.509436e-01  -1.141999e+00  8.331410e-02  -3.630289e-01  4.769787e-02  -1.043458e-01  1.723817e-01  1.658587e+00  -7.890417e-01  5.804693e-01  -3.544535e-01  3.159020e-01  -5.227616e-01  8.448980e-01  8.057030e-01  5.450299e-01  1.034937e+00  -2.004441e-01  -7.335629e-01  1.027864e+00  7.488681e-01  1.144500e+00  4.454356e-03  -1.333445e+00  -6.572244e-01  9.436768e-01  4.489240e-01  4.864623e-01  -1.125348e+00  -7.129145e-02  9.629825e-01  7.887090e-01  6.463746e-01  8.586947e-01  -7.751827e-01  5.555205e-01  5.934448e-01  -1.554556e+00  2.336227e-01  1.174364e-01  -2.995384e-01  -1.428052e+00  -1.481969e-01  1.310280e+00  6.716214e-01  -5.565010e-01  -1.048104e+00  8.886582e-01  -8.631029e-01  -1.562931e-02  5.287072e-01  -4.755164e-02  -1.761007e-01  -7.234761e-01  1.760277e-01  2.325376e-01  9.198903e-01  -7.157491e-01  3.213440e-01  4.251724e-01  -4.610193e-01  -3.021955e-01  -6.904390e-02  -5.358497e-01  1.122334e+00  1.268544e-01  8.034555e-01  1.170074e+00  5.726600e-01  -7.343088e-03  9.180714e-01  3.480578e-01  -1.164290e+00  1.463359e+00  -3.368730e-02  3.692174e-02  -3.259234e-01  8.833090e-01  -1.759685e-01  -4.971953e-01  6.752588e-01  -1.353234e+00  -5.287749e-01  -1.752775e+00  3.856348e-02  7.521242e-01  -4.391004e-02  4.209825e-01  -4.984486e-01  1.206442e+00  -6.987237e-01  -1.164936e+00  -2.548925e-01  -2.342009e-01  8.674216e-01  -6.714590e-01  -2.914018e-02  4.631975e-01  -4.319938e-01  -4.995156e-01  -2.755646e-01  -9.871360e-01  4.044256e-02  -4.230548e-01  -3.845037e-01  3.692922e-01  4.821893e-01  7.685468e-01  3.834692e-01  -7.913546e-01  -5.944252e-02  -1.395473e-01  5.204481e-02  4.216443e-01  -2.817096e-01  -1.415619e-01  -5.690335e-01  -8.661645e-01  -1.320422e+00  1.191393e+00  -2.256933e-01  -2.124855e-01  -1.150715e+00  5.569513e-01  8.081264e-01  -1.226962e-01  6.024296e-02  7.860628e-01  5.843276e-01  -7.680653e-01  -2.623243e-01  4.444326e-01  -4.532861e-02  -9.461138e-01  1.147031e+00  4.835699e-01  5.292782e-01  2.422473e-01  -5.595413e-02  -4.729248e-01  -1.326434e-01  4.833045e-01  9.934691e-01  1.627580e-01  -5.485560e-01  -1.158156e-01  -2.404952e-01  4.569252e-01  -1.297603e-01  -2.439529e-02  7.264283e-02  -4.827483e-01  -1.324698e-01  1.171601e+00  7.496513e-01  9.272313e-01  -1.170550e+00  4.146365e-01  9.243484e-01  7.276229e-01  1.634814e-01  6.420977e-02  4.927586e-01  -5.300673e-01  3.149813e-01  -9.148803e-01  2.567689e-01  2.167925e-01  -4.131688e-01  -8.593068e-01  5.001832e-01  2.922270e+00  4.200941e-01  2.623528e-01  -1.075710e+00  -3.337075e-01  -7.460018e-01  -7.424985e-01  7.446813e-01  -1.583236e-01  1.429020e-01  -1.246093e-01  4.649874e-02  -5.440831e-01  -1.586458e-01  -2.718398e-01  -5.552335e-02  6.825778e-01  1.790543e-01  8.526078e-01  -3.070323e-03  -8.047595e-01  4.992086e-01  9.917131e-01  5.498359e-01  -2.012735e-01  -2.910955e-02  8.823736e-01  1.632833e-01  5.908031e-01  -2.377581e-01  9.810874e-01  1.177514e-01  -1.828152e-01  2.154832e-01  -2.927358e-01  -2.587415e-02  2.557278e-01  8.768619e-02  -1.131163e+00  -7.801656e-01  -1.182327e+00  -4.850540e-01  5.900212e-01  2.401619e-01  -3.586883e-03  2.990691e-01  1.421596e+00  -1.046320e-01  -8.653727e-01  -1.856756e-01  4.416249e-02  2.874938e-01  -1.968942e-02  -2.705311e-01  -5.402212e-01  -5.047946e-03  2.228346e-01  5.501044e-01  -5.461888e-01  -1.094878e-01  1.538387e-01  -2.440692e-01  2.368022e-01  -5.607760e-03  -1.637490e+00  3.774581e-01  -5.087414e-01  7.292451e-01  -6.606193e-01  4.482740e-01  -2.986104e-01  -4.276157e-01  1.072833e-01  3.429681e-01  5.063550e-02  -8.413571e-01  -5.396696e-03  4.999928e-01  2.832314e-02  1.116651e+00  5.816685e-02  -1.216787e+00  9.951133e-02  3.702751e-01  3.917452e-01  -1.577481e-01  1.165247e-01  -4.724041e-01  9.031723e-01  -5.827761e-01  5.642804e-02  4.912539e-01  -1.708812e-01  -1.891813e-01  -1.370721e-01  -1.348875e+00  -5.101159e-01  -3.914655e-01  -6.987248e-02  -3.676955e-01  9.888611e-01  -1.806007e-01  1.430589e-01  -3.953068e-02  1.320561e+00  -2.083640e-01  -2.979044e-01  -1.224075e-01  2.121207e-01  -1.949594e-01  -7.974361e-01  5.260449e-01  8.920041e-03  -8.179860e-02  4.434947e-02  -3.080272e-01  -8.141512e-01  8.333796e-01  8.101540e-01  4.065118e-01  -6.874041e-01  1.740496e-01  5.831768e-01  -4.116249e-01  -3.238929e-01  -2.558588e-01  -6.651072e-01  5.838716e-01  6.855607e-01  4.304813e-01  7.582387e-02  -1.080500e+00  -4.946783e-01  7.367258e-02  4.194393e-01  -1.789046e-02  2.248018e-01  -2.715151e-01  -8.178603e-03  -5.157773e-01  9.136987e-01  3.483142e-01  2.121791e-01  -3.109058e-01  -1.374050e-01  9.317482e-01  -1.451243e-01  2.869545e-02  4.486350e-01  -6.283622e-01  -9.082465e-03  4.351599e-01  -1.232116e+00  -4.570470e-01  4.422594e-01  4.274308e-01  -8.789667e-01  3.020086e-01  -5.550882e-01  3.811339e-01  1.929333e-01  4.778430e-01  1.160657e-01  -1.089901e-01  -4.286307e-01  -7.974644e-01  -8.004352e-01  -1.262198e+00  -4.869288e-01  1.116508e-01  -6.311094e-01  5.729056e-01  3.780364e-01  2.866547e-01  -5.857562e-01  2.526757e-01  -4.475421e-01  9.347152e-01  9.348547e-02  6.727733e-01  5.491022e-01  -2.678510e-01  2.933034e-01  -3.537822e-01  -4.924726e-02  4.481062e-01  1.488260e+00  -1.027143e+00  -1.537428e+00  3.228688e-01  5.901973e-01  6.957603e-01  8.471001e-01  -3.828869e-01  5.334620e-01  6.838189e-01  -5.835121e-02  -6.479073e-01  1.867977e-01  1.145908e+00  -7.570837e-01  -1.371702e-01  1.804144e-01  -1.572618e-01  1.737939e-01  -9.303200e-01  